{"learner":{"attributes":{"scikit_learn":"{\"_estimator_type\": \"classifier\"}"},"feature_names":["is_tv_subscriber","is_movie_package_subscriber","subscription_age","bill_avg","download_avg","upload_avg"],"feature_types":["int","int","float","float","float","float"],"gradient_booster":{"model":{"gbtree_model_param":{"num_parallel_tree":"1","num_trees":"200"},"iteration_indptr":[0,1,2,3,4,5,6,7,8,9,10,11,12,13,14,15,16,17,18,19,20,21,22,23,24,25,26,27,28,29,30,31,32,33,34,35,36,37,38,39,40,41,42,43,44,45,46,47,48,49,50,51,52,53,54,55,56,57,58,59,60,61,62,63,64,65,66,67,68,69,70,71,72,73,74,75,76,77,78,79,80,81,82,83,84,85,86,87,88,89,90,91,92,93,94,95,96,97,98,99,100,101,102,103,104,105,106,107,108,109,110,111,112,113,114,115,116,117,118,119,120,121,122,123,124,125,126,127,128,129,130,131,132,133,134,135,136,137,138,139,140,141,142,143,144,145,146,147,148,149,150,151,152,153,154,155,156,157,158,159,160,161,162,163,164,165,166,167,168,169,170,171,172,173,174,175,176,177,178,179,180,181,182,183,184,185,186,187,188,189,190,191,192,193,194,195,196,197,198,199,200],"tree_info":[0,0,0,0,0,0,0,0,0,0,0,0,0,0,0,0,0,0,0,0,0,0,0,0,0,0,0,0,0,0,0,0,0,0,0,0,0,0,0,0,0,0,0,0,0,0,0,0,0,0,0,0,0,0,0,0,0,0,0,0,0,0,0,0,0,0,0,0,0,0,0,0,0,0,0,0,0,0,0,0,0,0,0,0,0,0,0,0,0,0,0,0,0,0,0,0,0,0,0,0,0,0,0,0,0,0,0,0,0,0,0,0,0,0,0,0,0,0,0,0,0,0,0,0,0,0,0,0,0,0,0,0,0,0,0,0,0,0,0,0,0,0,0,0,0,0,0,0,0,0,0,0,0,0,0,0,0,0,0,0,0,0,0,0,0,0,0,0,0,0,0,0,0,0,0,0,0,0,0,0,0,0,0,0,0,0,0,0,0,0,0,0,0,0,0,0,0,0,0,0],"trees":[{"base_weights":[2.5911178E-4,1.1039236E0,-5.542963E-1,1.8307534E0,7.1738815E-1,-1.6390975E-1,-1.2041932E0,1.8459685E0,1.3304336E0,1.0095251E0,-2.300903E-1,-4.5455924E-1,6.9578624E-1,-1.4454393E0,-9.910717E-1,3.694068E-1,1.1750785E-1,1.5660447E0,1.182719E-1,3.2137153E-1,1.3073921E0,-7.302543E-1,3.0336642E-1,1.4051514E0,-6.168563E-1,-1.1821005E0,9.236938E-1,3.3418426E-1,-1.4962641E0,-4.032934E-1,-1.1365461E0,8.359627E-1,3.2988542E-1,-4.661246E-1,1.812344E-1,8.5579014E-1,-1.2795301E-1,1.3907402E0,-2.0256214E-1,1.4569936E0,-8.5281765E-1,5.322019E-1,-1.155139E0,-9.932605E-1,1.6548406E0,-2.8430936E-1,-9.630096E-1,8.359627E-1,-1.2752601E0,1.0355834E0,-5.3134364E-1,-1.0992528E0,1.4331707E0,-1.3387753E0,-1.6866022E0,-2.7235243E-1,-1.3943931E0,-1.2128272E0,-7.411503E-1,2.6592863E-1,-6.079449E-2,2.8356677E-2,-1.5327989E-1,1.3957526E-2,2.3579812E-1,3.594814E-1,-7.938086E-2,4.4263538E-2,2.9093143E-1,4.9358387E-2,-1.4776765E-1,1.3418631E-1,3.138303E-1,-7.1072504E-2,-2.0668738E-1,1.4196095E-1,1.4676054E-2,-2.880153E-1,-5.070457E-2,-4.9444094E-2,-2.8416392E-1,5.888269E-2,3.347179E-1,-1.0390633E-1,-1.0460834E-2,-3.5463333E-2,-2.0878188E-1,2.8356677E-2,2.0856881E-1,-3.8087508E-1,-2.0502241E-1,2.488141E-1,1.15023725E-1,-6.371333E-2,-3.5210112E-1,2.1894958E-2,-3.1625143E-1,3.0303255E-1,1.14331536E-1,-3.4994024E-1,-2.5439623E-1,-3.5524902E-1,-2.825155E-1,-1.9719712E-1,-1.5921146E-3,-5.5072587E-2,-2.931858E-1,-2.2838919E-1,-3.344733E-1,-2.4267963E-1,-8.986409E-2],"categories":[],"categories_nodes":[],"categories_segments":[],"categories_sizes":[],"default_left":[0,0,0,0,0,0,0,0,0,0,0,0,0,0,0,0,0,0,0,0,0,0,0,0,0,0,0,0,0,0,0,0,0,0,0,0,0,0,0,0,0,0,0,0,0,0,0,0,0,0,0,0,0,0,0,0,0,0,0,0,0,0,0,0,0,0,0,0,0,0,0,0,0,0,0,0,0,0,0,0,0,0,0,0,0,0,0,0,0,0,0,0,0,0,0,0,0,0,0,0,0,0,0,0,0,0,0,0,0,0,0],"id":0,"left_children":[1,3,5,7,9,11,13,15,17,19,21,23,25,27,29,-1,-1,31,33,35,37,39,41,43,45,47,49,51,53,55,57,59,-1,61,-1,63,65,67,69,71,73,75,77,79,81,83,85,87,89,91,93,95,97,99,101,103,105,107,109,-1,-1,-1,-1,-1,-1,-1,-1,-1,-1,-1,-1,-1,-1,-1,-1,-1,-1,-1,-1,-1,-1,-1,-1,-1,-1,-1,-1,-1,-1,-1,-1,-1,-1,-1,-1,-1,-1,-1,-1,-1,-1,-1,-1,-1,-1,-1,-1,-1,-1,-1,-1],"loss_changes":[5.0057285E3,7.671267E2,1.3808851E3,4.767578E0,4.9492865E2,8.503484E2,1.0358887E2,1.4624023E-1,8.836029E0,2.796278E2,1.1282013E2,7.6839905E2,3.691275E2,8.696167E1,9.2548584E1,0E0,0E0,2.2613525E-1,3.2873757E0,9.953449E1,1.2024121E2,5.970849E1,6.9006546E1,1.24060425E2,2.6903693E2,1.864566E1,1.2548895E2,4.4675865E1,2.5606445E1,2.7826721E1,2.5382568E1,3.0661273E0,0E0,8.813139E-1,0E0,4.799356E1,1.1764063E2,6.720679E1,1.2408403E1,2.861023E-5,1.8245407E1,1.4437187E1,6.855381E0,5.996172E0,4.2391663E0,6.516798E1,7.265137E1,5.3145075E-1,1.2176254E1,6.772937E1,1.3944044E1,7.4202766E0,2.5843048E-1,1.1869263E1,7.7351074E0,3.644992E1,1.607338E0,2.1831665E1,1.923021E1,0E0,0E0,0E0,0E0,0E0,0E0,0E0,0E0,0E0,0E0,0E0,0E0,0E0,0E0,0E0,0E0,0E0,0E0,0E0,0E0,0E0,0E0,0E0,0E0,0E0,0E0,0E0,0E0,0E0,0E0,0E0,0E0,0E0,0E0,0E0,0E0,0E0,0E0,0E0,0E0,0E0,0E0,0E0,0E0,0E0,0E0,0E0,0E0,0E0,0E0,0E0,0E0],"parents":[2147483647,0,0,1,1,2,2,3,3,4,4,5,5,6,6,7,7,8,8,9,9,10,10,11,11,12,12,13,13,14,14,17,17,18,18,19,19,20,20,21,21,22,22,23,23,24,24,25,25,26,26,27,27,28,28,29,29,30,30,31,31,33,33,35,35,36,36,37,37,38,38,39,39,40,40,41,41,42,42,43,43,44,44,45,45,46,46,47,47,48,48,49,49,50,50,51,51,52,52,53,53,54,54,55,55,56,56,57,57,58,58],"right_children":[2,4,6,8,10,12,14,16,18,20,22,24,26,28,30,-1,-1,32,34,36,38,40,42,44,46,48,50,52,54,56,58,60,-1,62,-1,64,66,68,70,72,74,76,78,80,82,84,86,88,90,92,94,96,98,100,102,104,106,108,110,-1,-1,-1,-1,-1,-1,-1,-1,-1,-1,-1,-1,-1,-1,-1,-1,-1,-1,-1,-1,-1,-1,-1,-1,-1,-1,-1,-1,-1,-1,-1,-1,-1,-1,-1,-1,-1,-1,-1,-1,-1,-1,-1,-1,-1,-1,-1,-1,-1,-1,-1,-1],"split_conditions":[1.0140845E-1,2.8169013E-3,1E0,1.4084507E-3,1E0,6.052632E-1,4.473684E-1,8.77193E-3,1E0,3.9473686E-1,4.7368422E-1,1E0,7.768361E-2,1.8421052E-1,1.9929577E-1,3.694068E-1,1.1750785E-1,2.6836159E-2,3.9473686E-1,3.1578946E-1,8.079096E-1,2.631579E-2,7.923729E-1,2.259887E-2,2.894366E-1,7.8947365E-2,8.079096E-1,3.8135592E-2,3.9473686E-1,8.079096E-1,6.8421054E-1,1.3157895E-1,3.2988542E-1,2.1052632E-1,1.812344E-1,2.4011299E-2,1E0,5.9322033E-2,9.0112996E-1,8.474576E-3,3.508772E-2,9.6491225E-2,6.052632E-1,3.6842105E-1,3.2485876E-2,3.9473686E-1,3.1578946E-1,1.18309855E-1,2.6836159E-2,3.7957746E-1,5.6408453E-1,7.8947365E-2,5.6073445E-1,3.8135592E-2,4.2105263E-1,1.7655367E-1,7.8947365E-2,8.1920904E-1,1.8926553E-1,2.6592863E-1,-6.079449E-2,2.8356677E-2,-1.5327989E-1,1.3957526E-2,2.3579812E-1,3.594814E-1,-7.938086E-2,4.4263538E-2,2.9093143E-1,4.9358387E-2,-1.4776765E-1,1.3418631E-1,3.138303E-1,-7.1072504E-2,-2.0668738E-1,1.4196095E-1,1.4676054E-2,-2.880153E-1,-5.070457E-2,-4.9444094E-2,-2.8416392E-1,5.888269E-2,3.347179E-1,-1.0390633E-1,-1.0460834E-2,-3.5463333E-2,-2.0878188E-1,2.8356677E-2,2.0856881E-1,-3.8087508E-1,-2.0502241E-1,2.488141E-1,1.15023725E-1,-6.371333E-2,-3.5210112E-1,2.1894958E-2,-3.1625143E-1,3.0303255E-1,1.14331536E-1,-3.4994024E-1,-2.5439623E-1,-3.5524902E-1,-2.825155E-1,-1.9719712E-1,-1.5921146E-3,-5.5072587E-2,-2.931858E-1,-2.2838919E-1,-3.344733E-1,-2.4267963E-1,-8.986409E-2],"split_indices":[4,4,1,4,1,3,3,5,1,3,3,0,2,3,4,0,0,2,3,3,2,3,2,2,4,5,2,2,3,2,3,3,0,3,0,2,0,2,2,2,5,5,3,3,2,3,3,4,2,4,4,3,2,2,3,2,5,2,2,0,0,0,0,0,0,0,0,0,0,0,0,0,0,0,0,0,0,0,0,0,0,0,0,0,0,0,0,0,0,0,0,0,0,0,0,0,0,0,0,0,0,0,0,0,0,0,0,0,0,0,0],"split_type":[0,0,0,0,0,0,0,0,0,0,0,0,0,0,0,0,0,0,0,0,0,0,0,0,0,0,0,0,0,0,0,0,0,0,0,0,0,0,0,0,0,0,0,0,0,0,0,0,0,0,0,0,0,0,0,0,0,0,0,0,0,0,0,0,0,0,0,0,0,0,0,0,0,0,0,0,0,0,0,0,0,0,0,0,0,0,0,0,0,0,0,0,0,0,0,0,0,0,0,0,0,0,0,0,0,0,0,0,0,0,0],"sum_hessian":[8.1767197E3,2.7341938E3,5.4425254E3,9.4795337E2,1.7862406E3,3.4008945E3,2.041631E3,9.173662E2,3.0587162E1,1.3652319E3,4.2100867E2,2.5419673E3,8.589273E2,9.549163E2,1.0867146E3,9.161228E2,1.2433805E0,2.5364964E1,5.2221985E0,4.1305103E2,9.5218085E2,2.1709425E2,2.0391441E2,2.0341707E2,2.3385503E3,9.2507515E1,7.664198E2,2.6359669E1,9.2855664E2,2.1634822E2,8.703664E2,3.7301419E0,2.1634823E1,3.2327895E0,1.989409E0,1.8824782E2,2.248032E2,9.024456E2,4.9735226E1,1.094175E1,2.0615251E2,1.7680872E2,2.7105698E1,1.8899385E1,1.8451768E2,1.1936454E3,1.1449049E3,3.7301419E0,8.8777374E1,7.119597E2,5.446007E1,1.1439101E1,1.49205675E1,5.125215E2,4.1603516E2,1.9222664E2,2.4121584E1,7.27875E2,1.4249142E2,2.486761E0,1.2433805E0,1.2433805E0,1.989409E0,5.52061E1,1.3304172E2,2.6857021E1,1.979462E2,4.6999786E1,8.5544586E2,2.7354374E1,2.2380852E1,2.238085E0,8.703664E0,5.5703453E1,1.5044905E2,1.270735E2,4.9735226E1,2.0142765E1,6.9629316E0,7.4602838E0,1.1439101E1,2.7354374E0,1.8178224E2,5.9209784E2,6.0154755E2,1.07179405E2,1.0377255E3,1.2433805E0,2.486761E0,2.3375555E1,6.540182E1,4.8889725E2,2.2306248E2,4.749714E1,6.9629316E0,3.4814658E0,7.957636E0,1.2931158E1,1.989409E0,6.813726E1,4.4438422E2,3.093531E2,1.0668205E2,5.122728E1,1.4099936E2,1.7407329E0,2.2380852E1,6.336268E2,9.424825E1,5.321669E1,8.927473E1],"tree_param":{"num_deleted":"0","num_feature":"6","num_nodes":"111","size_leaf_vector":"1"}},{"base_weights":[2.4774875E-3,1.0286615E0,-4.0352562E-1,1.5471361E0,6.704585E-1,8.9867544E-1,-5.422636E-1,3.1586298E-1,1.132698E0,9.1124886E-1,-1.2675408E-1,-7.4683875E-1,1.1298668E0,-2.653612E-1,-9.408625E-1,2.5750828E-1,5.0034535E-1,3.3881444E-1,1.1709833E0,-6.016633E-1,3.5277602E-1,-6.5274514E-2,-1.3736589E0,1.4642918E0,7.6179355E-1,-4.6794805E-1,6.0142004E-1,-1.1268877E0,-7.456157E-1,-1.0454895E-1,9.4090694E-1,7.78173E-1,-4.0543787E-2,1.257699E0,3.3948052E-1,1.2081627E0,-6.9522685E-1,4.7132975E-1,-7.099159E-1,-7.652015E-1,1.0894346E0,-7.003215E-1,-1.4833853E0,1.4806708E0,1.13252394E-1,9.112318E-1,-1.2421166E-1,-1.9024959E-1,-7.483096E-1,-1.1371338E0,7.188789E-1,2.218252E-1,-1.1662748E0,-2.4873929E-1,-9.0083194E-1,1.4900136E-1,-9.758156E-2,2.3299645E-1,-5.369532E-2,-1.4703504E-2,2.0531438E-1,3.0493695E-1,-4.801799E-2,2.6751189E-2,2.6024446E-1,1.9523652E-1,4.427193E-4,9.121977E-2,2.7389586E-1,-8.413257E-2,-1.9031957E-1,-1.8108673E-1,1.1346518E-1,-1.9614252E-1,5.670963E-2,-2.1747552E-2,-2.3418711E-1,2.5030786E-1,-2.683608E-2,-2.5547954E-1,1.671927E-1,-3.057786E-1,-1.115336E-1,3.0628178E-1,2.0934312E-1,1.3736795E-1,-9.2095084E-2,-1.9571068E-2,2.090509E-1,6.888656E-2,-2.1135667E-1,-1.7671904E-1,-2.3821421E-2,-2.5621945E-2,-1.6272633E-1,-6.3735954E-2,-2.5048426E-1,2.0846641E-1,7.2094634E-2,-1.7070323E-1,2.2540548E-1,-2.1138656E-1,-2.593781E-1,-2.4308562E-2,-2.4631034E-1,-3.4856257E-1,-1.7257045E-1],"categories":[],"categories_nodes":[],"categories_segments":[],"categories_sizes":[],"default_left":[0,0,0,0,0,0,0,0,0,0,0,0,0,0,0,0,0,0,0,0,0,0,0,0,0,0,0,0,0,0,0,0,0,0,0,0,0,0,0,0,0,0,0,0,0,0,0,0,0,0,0,0,0,0,0,0,0,0,0,0,0,0,0,0,0,0,0,0,0,0,0,0,0,0,0,0,0,0,0,0,0,0,0,0,0,0,0,0,0,0,0,0,0,0,0,0,0,0,0,0,0,0,0,0,0,0,0],"id":1,"left_children":[1,3,5,7,9,11,13,-1,15,17,19,21,23,25,27,-1,29,31,33,35,37,39,41,43,45,47,49,51,53,55,57,59,61,63,65,67,69,71,73,75,77,79,81,83,85,87,89,91,93,95,97,99,101,103,105,-1,-1,-1,-1,-1,-1,-1,-1,-1,-1,-1,-1,-1,-1,-1,-1,-1,-1,-1,-1,-1,-1,-1,-1,-1,-1,-1,-1,-1,-1,-1,-1,-1,-1,-1,-1,-1,-1,-1,-1,-1,-1,-1,-1,-1,-1,-1,-1,-1,-1,-1,-1],"loss_changes":[3.3596755E3,4.2351318E2,1.0443468E3,1.0656982E1,2.5997552E2,2.12624E2,5.761395E2,0E0,6.286064E0,1.5420282E2,7.1926544E1,2.9465488E1,5.901648E1,5.416335E2,7.689685E1,0E0,4.244424E0,5.4358913E1,5.111743E1,2.7693619E1,2.0154797E1,2.84687E1,1.6200333E0,5.472168E0,3.1180115E1,1.9445233E2,1.2017299E2,5.837805E1,8.054108E1,2.791851E0,2.7792559E0,3.203788E1,5.5296112E1,3.1474548E1,1.4789084E1,3.654375E-1,1.0258438E1,1.9298431E1,4.6331434E0,5.6993694E0,2.8093538E0,7.2179556E0,4.1332245E-1,3.9397583E0,1.6772438E0,2.7271439E1,1.5548599E1,6.1898643E1,5.026941E1,3.127617E0,6.3164337E1,3.1998255E1,1.3813599E1,3.1184021E1,2.4001099E1,0E0,0E0,0E0,0E0,0E0,0E0,0E0,0E0,0E0,0E0,0E0,0E0,0E0,0E0,0E0,0E0,0E0,0E0,0E0,0E0,0E0,0E0,0E0,0E0,0E0,0E0,0E0,0E0,0E0,0E0,0E0,0E0,0E0,0E0,0E0,0E0,0E0,0E0,0E0,0E0,0E0,0E0,0E0,0E0,0E0,0E0,0E0,0E0,0E0,0E0,0E0,0E0],"parents":[2147483647,0,0,1,1,2,2,3,3,4,4,5,5,6,6,8,8,9,9,10,10,11,11,12,12,13,13,14,14,16,16,17,17,18,18,19,19,20,20,21,21,22,22,23,23,24,24,25,25,26,26,27,27,28,28,29,29,30,30,31,31,32,32,33,33,34,34,35,35,36,36,37,37,38,38,39,39,40,40,41,41,42,42,43,43,44,44,45,45,46,46,47,47,48,48,49,49,50,50,51,51,52,52,53,53,54,54],"right_children":[2,4,6,8,10,12,14,-1,16,18,20,22,24,26,28,-1,30,32,34,36,38,40,42,44,46,48,50,52,54,56,58,60,62,64,66,68,70,72,74,76,78,80,82,84,86,88,90,92,94,96,98,100,102,104,106,-1,-1,-1,-1,-1,-1,-1,-1,-1,-1,-1,-1,-1,-1,-1,-1,-1,-1,-1,-1,-1,-1,-1,-1,-1,-1,-1,-1,-1,-1,-1,-1,-1,-1,-1,-1,-1,-1,-1,-1,-1,-1,-1,-1,-1,-1,-1,-1,-1,-1,-1,-1],"split_conditions":[7.8947365E-2,8.77193E-3,1E0,1.4084507E-3,1E0,4.9435027E-2,1E0,3.1586298E-1,1E0,3.9473686E-1,4.473684E-1,6.315789E-1,6.315789E-1,6.052632E-1,4.7368422E-1,2.5750828E-1,3.6842105E-1,3.1578946E-1,6.666667E-1,2.631579E-2,8.1920904E-1,2.259887E-2,7.105263E-1,8.898305E-1,6.4689267E-1,2.7112675E-1,7.768361E-2,1.8421052E-1,1.9929577E-1,2.631579E-2,6.5677965E-1,1.4124294E-2,1E0,4.2372882E-2,5.5263156E-1,1.4124294E-2,5.2112676E-2,6.920904E-2,6.052632E-1,3.6842105E-1,4.7368422E-1,2.6836159E-2,7.5438595E-1,3.9366198E-1,1.4084508E-1,9.180791E-2,3.5E-1,4.9435027E-2,3.1578946E-1,1.3157895E-1,2.631579E-1,3.8135592E-2,3.302817E-1,8.1920904E-1,4.519774E-2,1.4900136E-1,-9.758156E-2,2.3299645E-1,-5.369532E-2,-1.4703504E-2,2.0531438E-1,3.0493695E-1,-4.801799E-2,2.6751189E-2,2.6024446E-1,1.9523652E-1,4.427193E-4,9.121977E-2,2.7389586E-1,-8.413257E-2,-1.9031957E-1,-1.8108673E-1,1.1346518E-1,-1.9614252E-1,5.670963E-2,-2.1747552E-2,-2.3418711E-1,2.5030786E-1,-2.683608E-2,-2.5547954E-1,1.671927E-1,-3.057786E-1,-1.115336E-1,3.0628178E-1,2.0934312E-1,1.3736795E-1,-9.2095084E-2,-1.9571068E-2,2.090509E-1,6.888656E-2,-2.1135667E-1,-1.7671904E-1,-2.3821421E-2,-2.5621945E-2,-1.6272633E-1,-6.3735954E-2,-2.5048426E-1,2.0846641E-1,7.2094634E-2,-1.7070323E-1,2.2540548E-1,-2.1138656E-1,-2.593781E-1,-2.4308562E-2,-2.4631034E-1,-3.4856257E-1,-1.7257045E-1],"split_indices":[5,5,0,4,1,2,1,0,1,3,3,3,3,3,3,0,3,3,2,3,2,2,3,2,2,4,2,3,4,3,2,2,0,2,3,2,4,2,3,3,5,2,5,4,4,2,4,2,3,5,5,2,4,2,2,0,0,0,0,0,0,0,0,0,0,0,0,0,0,0,0,0,0,0,0,0,0,0,0,0,0,0,0,0,0,0,0,0,0,0,0,0,0,0,0,0,0,0,0,0,0,0,0,0,0,0,0],"split_type":[0,0,0,0,0,0,0,0,0,0,0,0,0,0,0,0,0,0,0,0,0,0,0,0,0,0,0,0,0,0,0,0,0,0,0,0,0,0,0,0,0,0,0,0,0,0,0,0,0,0,0,0,0,0,0,0,0,0,0,0,0,0,0,0,0,0,0,0,0,0,0,0,0,0,0,0,0,0,0,0,0,0,0,0,0,0,0,0,0,0,0,0,0,0,0,0,0,0,0,0,0,0,0,0,0,0,0],"sum_hessian":[8.0618594E3,2.284979E3,5.776881E3,9.322668E2,1.352712E3,5.556883E2,5.2211924E3,8.624887E2,6.9778076E1,1.0388074E3,3.1390475E2,6.8180466E1,4.875078E2,3.081897E3,2.1392954E3,5.522026E1,1.4557817E1,3.2494922E2,7.138581E2,1.5758429E2,1.5632047E2,3.3192837E1,3.4987633E1,2.5386876E2,2.3363904E2,2.4984187E3,5.834783E2,1.0930752E3,1.0462203E3,6.456157E0,8.10166E0,1.500804E2,1.7486882E2,6.4597784E2,6.788026E1,7.160671E0,1.5042361E2,1.4113225E2,1.5188214E1,2.0876104E1,1.2316731E1,5.937085E0,2.9050549E1,2.5073311E2,3.1356466E0,1.9989519E2,3.3743847E1,1.2560139E3,1.2424048E3,3.6376385E1,5.4710187E2,3.0884403E1,1.0621908E3,2.4964908E2,7.965712E2,1.7141309E0,4.7420263E0,6.8662004E0,1.2354598E0,3.404694E1,1.16033455E2,1.9021843E1,1.5584698E2,2.423398E1,6.217439E2,2.284965E1,4.503061E1,1.9406492E0,5.220022E0,7.390976E1,7.6513855E1,8.649552E0,1.324827E2,1.194508E1,3.2431338E0,8.458517E0,1.2417588E1,1.0855741E1,1.4609905E0,4.4384E0,1.4986854E0,2.7068317E1,1.9822315E0,2.2222192E2,2.8511196E1,1.469427E0,1.6662196E0,2.3468126E1,1.7642706E2,2.2877766E1,1.0866081E1,1.1582065E2,1.1401934E3,1.1866845E2,1.1237363E3,4.9560895E0,3.1420296E1,2.8657034E2,2.6053152E2,1.4141731E1,1.6742672E1,5.831294E2,4.7906137E2,2.2203656E2,2.7612509E1,3.2443203E1,7.6412805E2],"tree_param":{"num_deleted":"0","num_feature":"6","num_nodes":"107","size_leaf_vector":"1"}},{"base_weights":[4.4650435E-3,8.0010283E-1,-3.6813194E-1,1.3821543E0,5.0120306E-1,-1.1253E-1,-7.9330415E-1,2.8315708E-1,9.704666E-1,1.3067379E0,3.0507714E-1,-3.0135038E-1,4.7086784E-1,-8.4336156E-1,-2.6563948E-1,1.1089407E0,4.2638814E-1,-5.4472667E-1,1.3611065E0,-1.1944565E-1,5.8774316E-1,1.0320818E0,-4.0444455E-1,-7.9516923E-1,6.297743E-1,-7.95582E-1,-1.2293873E0,7.3123006E-3,-7.913151E-1,7.947817E-1,2.3376682E-1,-7.6702125E-2,8.0146E-1,5.969943E-1,-1.3184025E0,1.3757025E0,-3.282847E-1,1.2368445E0,-2.1730971E-1,7.47807E-1,-2.8842074E-1,-5.8558875E-1,1.2515094E0,-1.3662186E-1,-6.0813874E-1,1.863428E-1,-8.568049E-1,9.661658E-1,2.65603E-1,-1.3151996E0,-7.563896E-1,-1.1089895E-1,-1.2453799E0,-6.135331E-1,3.4352988E-1,2.4682282E-1,-8.645929E-1,2.1458726E-1,1.3176324E-2,1.325218E-1,-8.1403635E-2,2.0057344E-1,-4.771819E-2,2.2345605E-1,1.1394998E-3,-6.0709983E-2,-3.0216357E-1,2.8434592E-1,1.6540512E-1,1.23363614E-1,-2.2514947E-1,2.6644167E-1,-1.2207269E-1,1.8188807E-3,-1.3191248E-1,5.6657583E-2,1.8206707E-1,-1.2140151E-1,8.103787E-2,6.044898E-2,-1.557294E-1,2.5316128E-1,8.628372E-3,-1.840852E-1,-1.5866697E-2,-8.772804E-3,-1.3412966E-1,-2.7441156E-1,-1.3298343E-1,1.3249777E-1,2.5384557E-1,1.2058803E-1,-2.1909704E-2,4.7244437E-2,-2.719362E-1,1.9501452E-1,-1.5458529E-1,-1.23795524E-1,8.9247055E-2,-2.4160894E-2,-2.5096238E-1,1.0013789E-1,-1.725076E-1,1.6537558E-1,1.9936798E-2,1.4282626E-1,-1.1743667E-1,-1.3755083E-1,-2.2297521E-1],"categories":[],"categories_nodes":[],"categories_segments":[],"categories_sizes":[],"default_left":[0,0,0,0,0,0,0,0,0,0,0,0,0,0,0,0,0,0,0,0,0,0,0,0,0,0,0,0,0,0,0,0,0,0,0,0,0,0,0,0,0,0,0,0,0,0,0,0,0,0,0,0,0,0,0,0,0,0,0,0,0,0,0,0,0,0,0,0,0,0,0,0,0,0,0,0,0,0,0,0,0,0,0,0,0,0,0,0,0,0,0,0,0,0,0,0,0,0,0,0,0,0,0,0,0,0,0,0,0],"id":2,"left_children":[1,3,5,7,9,11,13,-1,15,17,19,21,23,25,27,29,31,33,35,37,39,41,43,45,47,49,51,53,55,57,-1,59,61,63,65,67,69,71,73,75,77,79,81,83,85,-1,87,89,91,93,95,97,99,101,103,105,107,-1,-1,-1,-1,-1,-1,-1,-1,-1,-1,-1,-1,-1,-1,-1,-1,-1,-1,-1,-1,-1,-1,-1,-1,-1,-1,-1,-1,-1,-1,-1,-1,-1,-1,-1,-1,-1,-1,-1,-1,-1,-1,-1,-1,-1,-1,-1,-1,-1,-1,-1,-1],"loss_changes":[2.3183079E3,4.3322998E2,5.787146E2,1.0334839E1,2.6019714E2,3.6668918E2,5.2590454E1,0E0,4.5784645E0,3.3221497E1,1.5940599E2,3.4607922E2,1.6426584E2,3.269751E1,2.5074068E1,6.488037E-2,2.934696E0,9.548766E0,8.188049E0,7.082452E1,1.120242E2,6.4887085E1,1.2728583E2,1.0507458E1,8.841159E1,3.2150513E1,3.426239E0,2.442241E1,4.7565575E0,2.277573E0,0E0,2.080771E0,2.0848694E0,1.4379754E0,7.5680447E-1,6.6845703E0,3.3283832E0,7.141308E0,4.9733643E1,5.065625E1,2.7618484E1,4.0522885E0,2.700348E0,4.527392E1,4.673648E1,0E0,7.847313E0,3.3751587E1,4.4223698E1,8.105179E0,4.4154175E1,1.382086E0,1.9311218E0,1.1836704E1,8.861395E0,2.2571225E0,1.71204E0,0E0,0E0,0E0,0E0,0E0,0E0,0E0,0E0,0E0,0E0,0E0,0E0,0E0,0E0,0E0,0E0,0E0,0E0,0E0,0E0,0E0,0E0,0E0,0E0,0E0,0E0,0E0,0E0,0E0,0E0,0E0,0E0,0E0,0E0,0E0,0E0,0E0,0E0,0E0,0E0,0E0,0E0,0E0,0E0,0E0,0E0,0E0,0E0,0E0,0E0,0E0,0E0],"parents":[2147483647,0,0,1,1,2,2,3,3,4,4,5,5,6,6,8,8,9,9,10,10,11,11,12,12,13,13,14,14,15,15,16,16,17,17,18,18,19,19,20,20,21,21,22,22,23,23,24,24,25,25,26,26,27,27,28,28,29,29,31,31,32,32,33,33,34,34,35,35,36,36,37,37,38,38,39,39,40,40,41,41,42,42,43,43,44,44,46,46,47,47,48,48,49,49,50,50,51,51,52,52,53,53,54,54,55,55,56,56],"right_children":[2,4,6,8,10,12,14,-1,16,18,20,22,24,26,28,30,32,34,36,38,40,42,44,46,48,50,52,54,56,58,-1,60,62,64,66,68,70,72,74,76,78,80,82,84,86,-1,88,90,92,94,96,98,100,102,104,106,108,-1,-1,-1,-1,-1,-1,-1,-1,-1,-1,-1,-1,-1,-1,-1,-1,-1,-1,-1,-1,-1,-1,-1,-1,-1,-1,-1,-1,-1,-1,-1,-1,-1,-1,-1,-1,-1,-1,-1,-1,-1,-1,-1,-1,-1,-1,-1,-1,-1,-1,-1,-1],"split_conditions":[1.0140845E-1,8.77193E-3,1E0,1.4084507E-3,1E0,6.052632E-1,6.8421054E-1,2.8315708E-1,1E0,1.2711864E-2,4.2105263E-1,1E0,7.768361E-2,8.079096E-1,5.1478875E-1,7.20339E-2,3.6842105E-1,3.028169E-2,9.336158E-1,2.631579E-2,6.4689267E-1,3.2485876E-2,2.3684211E-1,7.017544E-2,3.3474576E-1,3.3898305E-2,2.631579E-1,1.9915254E-1,3.0701753E-1,1.2711864E-2,2.3376682E-1,2.631579E-2,6.5677965E-1,5.6497175E-3,1.3157895E-1,6.5789473E-1,6.052632E-1,2.1929824E-1,1E0,1.7372881E-1,6.052632E-1,1.4577465E-1,8.898305E-1,3.3898305E-2,3.1578946E-1,1.863428E-1,2.6836159E-2,2.1751413E-1,2.915493E-1,7.8947365E-2,1.8421052E-1,2.0985915E-1,7.8947365E-2,7.368421E-1,2.0704225E-1,6.732394E-1,6.666667E-1,2.1458726E-1,1.3176324E-2,1.325218E-1,-8.1403635E-2,2.0057344E-1,-4.771819E-2,2.2345605E-1,1.1394998E-3,-6.0709983E-2,-3.0216357E-1,2.8434592E-1,1.6540512E-1,1.23363614E-1,-2.2514947E-1,2.6644167E-1,-1.2207269E-1,1.8188807E-3,-1.3191248E-1,5.6657583E-2,1.8206707E-1,-1.2140151E-1,8.103787E-2,6.044898E-2,-1.557294E-1,2.5316128E-1,8.628372E-3,-1.840852E-1,-1.5866697E-2,-8.772804E-3,-1.3412966E-1,-2.7441156E-1,-1.3298343E-1,1.3249777E-1,2.5384557E-1,1.2058803E-1,-2.1909704E-2,4.7244437E-2,-2.719362E-1,1.9501452E-1,-1.5458529E-1,-1.23795524E-1,8.9247055E-2,-2.4160894E-2,-2.5096238E-1,1.0013789E-1,-1.725076E-1,1.6537558E-1,1.9936798E-2,1.4282626E-1,-1.1743667E-1,-1.3755083E-1,-2.2297521E-1],"split_indices":[4,5,1,4,0,3,3,0,1,2,3,0,2,2,4,2,3,4,2,3,2,2,5,5,2,2,3,2,5,2,0,3,2,2,3,3,3,5,1,2,3,4,2,2,3,0,2,2,4,3,3,4,5,3,4,4,5,0,0,0,0,0,0,0,0,0,0,0,0,0,0,0,0,0,0,0,0,0,0,0,0,0,0,0,0,0,0,0,0,0,0,0,0,0,0,0,0,0,0,0,0,0,0,0,0,0,0,0,0],"split_type":[0,0,0,0,0,0,0,0,0,0,0,0,0,0,0,0,0,0,0,0,0,0,0,0,0,0,0,0,0,0,0,0,0,0,0,0,0,0,0,0,0,0,0,0,0,0,0,0,0,0,0,0,0,0,0,0,0,0,0,0,0,0,0,0,0,0,0,0,0,0,0,0,0,0,0,0,0,0,0,0,0,0,0,0,0,0,0,0,0,0,0,0,0,0,0,0,0,0,0,0,0,0,0,0,0,0,0,0,0],"sum_hessian":[7.8181807E3,2.4931658E3,5.325015E3,8.446817E2,1.648484E3,3.3264866E3,1.9985282E3,7.786356E2,6.6046104E1,3.2166565E2,1.3268184E3,2.5134697E3,8.1301685E2,1.824817E3,1.7371124E2,5.1819305E1,1.4226803E1,8.919019E0,3.127466E2,5.305651E2,7.9625323E2,1.7973569E2,2.3337341E3,9.021926E1,7.227976E2,1.6265543E3,1.982627E2,1.1498996E2,5.872129E1,1.0582221E1,4.1237083E1,6.416177E0,7.810626E0,3.694854E0,5.224165E0,3.102518E2,2.4948351E0,3.492358E1,4.9564154E2,6.733816E2,1.2287163E2,2.1268766E1,1.5846693E2,1.0088895E3,1.3248446E3,2.6226454E0,8.759662E1,3.7487024E2,3.4792734E2,1.1179564E2,1.5147587E3,2.9067512E0,1.9535594E2,4.010638E1,7.4883575E1,3.7154646E0,5.5005825E1,7.3177214E0,3.2645E0,1.670744E0,4.745433E0,6.573426E0,1.2372E0,1.4922613E0,2.2025928E0,1.2434479E0,3.9807172E0,2.8477185E2,2.5479944E1,1.2453951E0,1.2494402E0,3.3474243E1,1.4493401E0,3.284674E2,1.6717413E2,1.7524892E2,4.981327E2,8.428361E1,3.8588024E1,3.6978006E0,1.7570965E1,1.5656696E2,1.8999738E0,6.769114E1,9.411984E2,1.322972E2,1.1925474E3,2.210105E1,6.549557E1,1.8883655E2,1.8603369E2,1.8287685E2,1.6505049E2,2.9958503E0,1.0879978E2,1.378191E1,1.5009768E3,1.4622496E0,1.4445015E0,1.7396777E0,1.9361626E2,7.141143E0,3.2965237E1,2.430854E1,5.057504E1,2.4733412E0,1.2421232E0,3.442827E1,2.0577559E1],"tree_param":{"num_deleted":"0","num_feature":"6","num_nodes":"109","size_leaf_vector":"1"}},{"base_weights":[6.1737616E-3,6.5032166E-1,-3.3780232E-1,1.290576E0,4.1085792E-1,6.119824E-1,-4.2334336E-1,1.3047256E0,8.779897E-1,6.0273796E-1,-1.5882449E-1,-5.592662E-1,7.9685575E-1,-2.4523512E-1,-6.7610675E-1,2.6116732E-1,6.554145E-2,1.0691624E0,3.3727832E-2,1.6284323E-1,8.247927E-1,-4.5253494E-1,1.781657E-1,-1.0078915E-1,-1.097908E0,1.1339127E0,5.109798E-1,-3.758738E-1,3.4480855E-1,-8.4221727E-1,-5.37471E-1,4.8141026E-1,2.2962391E-1,-3.508199E-1,1.2098818E-1,6.0431623E-1,-1.6857468E-1,-4.587082E-2,8.905978E-1,1.011487E0,-5.08423E-1,2.944236E-1,-8.4069556E-1,-4.891201E-1,9.71115E-1,-1.1853571E0,-5.2794075E-1,1.1554953E0,-3.395376E-2,7.607613E-1,1.1401917E-1,-2.5711307E-1,-6.580915E-1,-7.9899985E-1,4.4058892E-1,-1.6017956E-1,-9.005707E-1,-2.8136283E-1,-6.378376E-1,1.9525541E-1,-8.712035E-2,2.597165E-2,-1.185218E-1,6.038593E-3,1.676076E-1,-6.217245E-2,2.6213083E-1,1.2902646E-1,-1.06551245E-1,1.9625501E-1,1.9344931E-2,7.9971656E-2,2.2687279E-1,-3.9419293E-2,-1.3496937E-1,-2.1550646E-1,6.661895E-2,-1.883067E-1,1.5878314E-2,8.603763E-2,-1.7535743E-1,7.709574E-2,2.1160176E-1,-2.5116083E-1,-2.0639902E-2,1.954329E-2,-1.4564638E-1,2.3860951E-1,8.91657E-2,8.98963E-2,-8.288542E-2,1.8936238E-1,7.840251E-3,5.2927505E-2,-1.323652E-1,-9.050106E-2,-1.4793195E-2,-1.1155081E-1,-1.8339013E-1,-2.3783943E-2,-1.8104564E-1,1.0868263E-1,-1.1119264E-1,-1.9871686E-1,3.0543417E-2,-1.5353113E-1,-2.0972215E-1,-3.6331724E-2,-1.8784748E-1,-2.3915958E-1,-1.1911056E-1],"categories":[],"categories_nodes":[],"categories_segments":[],"categories_sizes":[],"default_left":[0,0,0,0,0,0,0,0,0,0,0,0,0,0,0,0,0,0,0,0,0,0,0,0,0,0,0,0,0,0,0,0,0,0,0,0,0,0,0,0,0,0,0,0,0,0,0,0,0,0,0,0,0,0,0,0,0,0,0,0,0,0,0,0,0,0,0,0,0,0,0,0,0,0,0,0,0,0,0,0,0,0,0,0,0,0,0,0,0,0,0,0,0,0,0,0,0,0,0,0,0,0,0,0,0,0,0,0,0,0,0],"id":3,"left_children":[1,3,5,7,9,11,13,15,17,19,21,23,25,27,29,-1,-1,31,33,35,37,39,41,43,45,47,49,51,53,55,57,59,-1,61,-1,63,65,67,69,71,73,75,77,79,81,83,85,87,89,91,93,95,97,99,101,103,105,107,109,-1,-1,-1,-1,-1,-1,-1,-1,-1,-1,-1,-1,-1,-1,-1,-1,-1,-1,-1,-1,-1,-1,-1,-1,-1,-1,-1,-1,-1,-1,-1,-1,-1,-1,-1,-1,-1,-1,-1,-1,-1,-1,-1,-1,-1,-1,-1,-1,-1,-1,-1,-1],"loss_changes":[1.6686969E3,4.0141992E2,3.991355E2,3.0178223E0,2.0882593E2,8.8367584E1,2.0262213E2,3.182373E-1,4.2740784E0,1.3941315E2,4.777833E1,1.3704407E1,3.3251663E1,2.0393895E2,4.2414E1,0E0,0E0,4.5625687E-1,1.5220684E0,7.040202E1,5.4420288E1,2.1605286E1,2.6914927E1,1.3512326E1,6.5122986E-1,4.0798645E0,1.8930428E1,7.240149E1,5.2917202E1,3.3487793E1,2.5972229E1,2.3751945E0,0E0,5.647182E-1,0E0,2.7650337E1,5.833694E1,2.310238E1,6.343164E1,2.8390217E-1,1.2765938E1,1.1119434E1,2.238142E0,8.80797E0,3.306961E-2,1.5025768E0,7.241869E-1,3.663498E0,8.999875E-1,1.5742874E1,8.96866E0,5.4560196E1,1.6128387E1,2.5963802E0,4.5735123E1,1.7836563E1,1.4507996E1,1.8735767E1,1.6514465E1,0E0,0E0,0E0,0E0,0E0,0E0,0E0,0E0,0E0,0E0,0E0,0E0,0E0,0E0,0E0,0E0,0E0,0E0,0E0,0E0,0E0,0E0,0E0,0E0,0E0,0E0,0E0,0E0,0E0,0E0,0E0,0E0,0E0,0E0,0E0,0E0,0E0,0E0,0E0,0E0,0E0,0E0,0E0,0E0,0E0,0E0,0E0,0E0,0E0,0E0,0E0,0E0],"parents":[2147483647,0,0,1,1,2,2,3,3,4,4,5,5,6,6,7,7,8,8,9,9,10,10,11,11,12,12,13,13,14,14,17,17,18,18,19,19,20,20,21,21,22,22,23,23,24,24,25,25,26,26,27,27,28,28,29,29,30,30,31,31,33,33,35,35,36,36,37,37,38,38,39,39,40,40,41,41,42,42,43,43,44,44,45,45,46,46,47,47,48,48,49,49,50,50,51,51,52,52,53,53,54,54,55,55,56,56,57,57,58,58],"right_children":[2,4,6,8,10,12,14,16,18,20,22,24,26,28,30,-1,-1,32,34,36,38,40,42,44,46,48,50,52,54,56,58,60,-1,62,-1,64,66,68,70,72,74,76,78,80,82,84,86,88,90,92,94,96,98,100,102,104,106,108,110,-1,-1,-1,-1,-1,-1,-1,-1,-1,-1,-1,-1,-1,-1,-1,-1,-1,-1,-1,-1,-1,-1,-1,-1,-1,-1,-1,-1,-1,-1,-1,-1,-1,-1,-1,-1,-1,-1,-1,-1,-1,-1,-1,-1,-1,-1,-1,-1,-1,-1,-1,-1],"split_conditions":[1.14035085E-1,2.8169013E-3,1E0,1.4084507E-3,1E0,4.9435027E-2,1E0,8.77193E-3,1E0,3.9473686E-1,4.7368422E-1,7.105263E-1,6.315789E-1,6.052632E-1,4.473684E-1,2.6116732E-1,6.554145E-2,2.6836159E-2,3.9473686E-1,3.1578946E-1,6.355932E-2,2.631579E-2,8.1920904E-1,2.6836159E-2,9.2105263E-1,8.898305E-1,3.4039548E-1,4.0774646E-1,9.180791E-2,2.631579E-1,2.4929577E-1,1.3157895E-1,2.2962391E-1,2.1052632E-1,1.2098818E-1,2.259887E-2,4.6468925E-1,7.042254E-2,6.8502825E-1,1.1267605E-2,5.2112676E-2,4.9435027E-2,6.8421054E-1,1.9298245E-1,3.2485876E-2,7.5438595E-1,3.8135592E-2,5.7112676E-1,1.4084508E-1,5.267606E-1,8.684211E-1,3.9473686E-1,6.619718E-1,1.7323944E-1,8.079096E-1,2.1186441E-2,3.9473686E-1,8.079096E-1,6.638418E-2,1.9525541E-1,-8.712035E-2,2.597165E-2,-1.185218E-1,6.038593E-3,1.676076E-1,-6.217245E-2,2.6213083E-1,1.2902646E-1,-1.06551245E-1,1.9625501E-1,1.9344931E-2,7.9971656E-2,2.2687279E-1,-3.9419293E-2,-1.3496937E-1,-2.1550646E-1,6.661895E-2,-1.883067E-1,1.5878314E-2,8.603763E-2,-1.7535743E-1,7.709574E-2,2.1160176E-1,-2.5116083E-1,-2.0639902E-2,1.954329E-2,-1.4564638E-1,2.3860951E-1,8.91657E-2,8.98963E-2,-8.288542E-2,1.8936238E-1,7.840251E-3,5.2927505E-2,-1.323652E-1,-9.050106E-2,-1.4793195E-2,-1.1155081E-1,-1.8339013E-1,-2.3783943E-2,-1.8104564E-1,1.0868263E-1,-1.1119264E-1,-1.9871686E-1,3.0543417E-2,-1.5353113E-1,-2.0972215E-1,-3.6331724E-2,-1.8784748E-1,-2.3915958E-1,-1.1911056E-1],"split_indices":[5,4,0,4,1,2,1,5,1,3,3,3,3,3,3,0,0,2,3,3,2,3,2,2,3,2,2,4,2,3,4,3,0,3,0,2,2,4,2,4,4,2,3,5,2,5,2,4,4,4,3,3,4,4,2,2,3,2,2,0,0,0,0,0,0,0,0,0,0,0,0,0,0,0,0,0,0,0,0,0,0,0,0,0,0,0,0,0,0,0,0,0,0,0,0,0,0,0,0,0,0,0,0,0,0,0,0,0,0,0,0],"split_type":[0,0,0,0,0,0,0,0,0,0,0,0,0,0,0,0,0,0,0,0,0,0,0,0,0,0,0,0,0,0,0,0,0,0,0,0,0,0,0,0,0,0,0,0,0,0,0,0,0,0,0,0,0,0,0,0,0,0,0,0,0,0,0,0,0,0,0,0,0,0,0,0,0,0,0,0,0,0,0,0,0,0,0,0,0,0,0,0,0,0,0,0,0,0,0,0,0,0,0,0,0,0,0,0,0,0,0,0,0,0,0],"sum_hessian":[7.529198E3,2.620681E3,4.908517E3,7.1216797E2,1.9085131E3,4.0504465E2,4.5034727E3,6.864632E2,2.570476E1,1.4276088E3,4.809043E2,5.4941643E1,3.50103E2,2.64304E3,1.8604324E3,6.853474E2,1.115761E0,2.0741676E1,4.963084E0,4.794809E2,9.4812787E2,2.5676917E2,2.2413512E2,3.0320658E1,2.4620987E1,1.5930768E2,1.907953E2,2.1642312E3,4.7880893E2,8.4404285E2,1.01638947E3,3.2968974E0,1.7444778E1,3.1967955E0,1.7662888E0,2.0524974E2,2.7423117E2,6.664574E1,8.814822E2,8.812844E0,2.4795633E2,2.018176E2,2.2317516E1,2.2656368E1,7.6642904E0,2.0409847E1,4.211139E0,1.5642744E2,2.8802469E0,1.1654476E2,7.425054E1,1.5245798E3,6.396513E2,3.642924E1,4.423797E2,6.6817825E1,7.7722504E2,2.8723853E2,7.2915094E2,2.0993514E0,1.1975462E0,1.2248046E0,1.971991E0,5.9708546E1,1.455412E2,2.50888E2,2.3343163E1,2.741396E1,3.9231773E1,7.9090765E2,9.057452E1,2.1860015E0,6.6268425E0,8.713622E1,1.6082011E2,4.7962074E0,1.970214E2,2.0092182E1,2.225334E0,6.6876597E0,1.5968708E1,1.6926413E0,5.971649E0,1.9011745E1,1.3981009E0,1.1453847E0,3.0657544E0,1.4791911E2,8.508321E0,1.1886083E0,1.6916385E0,9.240614E1,2.4138618E1,6.273116E1,1.1519382E1,7.3691956E2,7.8766034E2,4.6324542E2,1.7640585E2,5.207834E0,3.1221409E1,4.0141626E2,4.0963432E1,1.764491E1,4.9172916E1,4.1279227E2,3.6443277E2,2.5054353E2,3.6695007E1,4.9443916E1,6.7970703E2],"tree_param":{"num_deleted":"0","num_feature":"6","num_nodes":"111","size_leaf_vector":"1"}},{"base_weights":[7.105686E-3,7.006652E-1,-2.3081018E-1,1.2258686E0,4.5044148E-1,5.9229875E-1,-3.0752942E-1,2.4541505E-1,5.9382975E-2,1.1113945E0,3.0017036E-1,-4.7101346E-1,7.5359625E-1,-1.5275714E-1,-5.418193E-1,-1.057863E-1,1.1795161E0,1.6335864E-1,8.807048E-1,-8.009747E-2,-1.0098474E0,1.0785677E0,4.5404625E-1,-2.593268E-1,3.4022364E-1,-6.995569E-1,-4.1261354E-1,7.3802507E-1,-9.720108E-1,1.1922039E0,-8.214348E-2,3.0980974E-1,-1.6227847E-1,9.857622E-1,9.023024E-2,-4.796799E-1,9.043799E-1,-1.0936972E0,-4.580196E-1,1.1517541E0,6.852859E-1,5.202654E-1,-9.121644E-1,2.392133E-1,-3.2772735E-1,6.3221216E-1,4.9820244E-2,-9.837559E-2,-7.549531E-1,-3.5102654E-1,-8.6978537E-1,1.9921403E-1,-3.452003E-2,-8.835715E-3,-2.4376325E-1,2.4007574E-1,-5.7644904E-2,1.1692132E-1,2.7929002E-2,-1.3614266E-1,-1.030459E-2,1.14232E-1,2.2764719E-1,-1.124437E-1,7.195056E-2,-2.3638192E-3,-1.70655E-1,4.1873407E-2,1.9093953E-1,-2.3168433E-1,-1.8295107E-2,-1.7647083E-1,-1.3744195E-2,2.3378296E-1,3.5036982E-3,8.912045E-2,2.1262462E-1,1.3243526E-1,2.44906E-3,-7.49308E-2,-2.1613593E-1,-8.377269E-2,9.0707615E-2,-1.2930588E-1,-2.1480523E-2,-1.1578386E-1,1.3990615E-1,-1.5519768E-1,2.6590789E-2,-1.442594E-1,2.8873442E-2,-1.2758157E-1,-1.7859681E-1,-1.2643813E-1,-4.3373685E-2,-1.911387E-1,-3.1443425E-2],"categories":[],"categories_nodes":[],"categories_segments":[],"categories_sizes":[],"default_left":[0,0,0,0,0,0,0,0,0,0,0,0,0,0,0,0,0,0,0,0,0,0,0,0,0,0,0,0,0,0,0,0,0,0,0,0,0,0,0,0,0,0,0,0,0,0,0,0,0,0,0,0,0,0,0,0,0,0,0,0,0,0,0,0,0,0,0,0,0,0,0,0,0,0,0,0,0,0,0,0,0,0,0,0,0,0,0,0,0,0,0,0,0,0,0,0,0],"id":4,"left_children":[1,3,5,7,9,11,13,-1,-1,15,17,19,21,23,25,27,29,31,33,35,37,39,41,43,45,47,49,51,53,55,-1,57,59,61,63,65,67,69,71,73,75,77,79,81,83,85,87,89,91,93,95,-1,-1,-1,-1,-1,-1,-1,-1,-1,-1,-1,-1,-1,-1,-1,-1,-1,-1,-1,-1,-1,-1,-1,-1,-1,-1,-1,-1,-1,-1,-1,-1,-1,-1,-1,-1,-1,-1,-1,-1,-1,-1,-1,-1,-1,-1],"loss_changes":[1.193142E3,2.4216046E2,3.4016785E2,3.0297852E-1,1.2406561E2,7.9142136E1,1.7852557E2,0E0,0E0,1.9331451E1,8.101483E1,1.2793608E1,3.83757E1,1.5599211E2,3.9637695E1,1.0361768E1,4.9172974E0,3.954634E1,1.6076416E1,1.4795626E1,6.8416786E-1,4.7017365E0,1.942604E1,8.330426E1,4.4732075E1,2.9255188E1,3.0084747E1,1.8760691E0,1.5359383E0,2.9838257E0,0E0,2.664724E1,1.4754797E1,1.0205368E1,4.4114933E0,4.6431866E0,1.808443E-1,1.2895775E0,7.8167546E-1,3.0815735E0,2.4605064E0,1.4441799E1,5.051756E-1,4.180222E1,1.5070612E2,2.185997E1,1.8348083E1,1.1513497E1,1.2455627E1,3.580626E1,7.6524963E0,0E0,0E0,0E0,0E0,0E0,0E0,0E0,0E0,0E0,0E0,0E0,0E0,0E0,0E0,0E0,0E0,0E0,0E0,0E0,0E0,0E0,0E0,0E0,0E0,0E0,0E0,0E0,0E0,0E0,0E0,0E0,0E0,0E0,0E0,0E0,0E0,0E0,0E0,0E0,0E0,0E0,0E0,0E0,0E0,0E0,0E0],"parents":[2147483647,0,0,1,1,2,2,3,3,4,4,5,5,6,6,9,9,10,10,11,11,12,12,13,13,14,14,15,15,16,16,17,17,18,18,19,19,20,20,21,21,22,22,23,23,24,24,25,25,26,26,27,27,28,28,29,29,31,31,32,32,33,33,34,34,35,35,36,36,37,37,38,38,39,39,40,40,41,41,42,42,43,43,44,44,45,45,46,46,47,47,48,48,49,49,50,50],"right_children":[2,4,6,8,10,12,14,-1,-1,16,18,20,22,24,26,28,30,32,34,36,38,40,42,44,46,48,50,52,54,56,-1,58,60,62,64,66,68,70,72,74,76,78,80,82,84,86,88,90,92,94,96,-1,-1,-1,-1,-1,-1,-1,-1,-1,-1,-1,-1,-1,-1,-1,-1,-1,-1,-1,-1,-1,-1,-1,-1,-1,-1,-1,-1,-1,-1,-1,-1,-1,-1,-1,-1,-1,-1,-1,-1,-1,-1,-1,-1,-1,-1],"split_conditions":[7.8947365E-2,1.4084507E-3,1E0,8.77193E-3,1E0,4.9435027E-2,1E0,2.4541505E-1,5.9382975E-2,1.4124294E-2,6.052632E-1,7.105263E-1,6.315789E-1,6.052632E-1,4.473684E-1,3.028169E-2,9.519774E-1,1E0,6.9491524E-1,2.6836159E-2,9.2105263E-1,3.8215274E-1,8.615819E-1,3.1578946E-1,2.631579E-1,2.631579E-1,8.1920904E-1,1.754386E-2,1.0526316E-1,1.9295774E-1,-8.214348E-2,3.7323944E-2,6.214689E-2,2.2740114E-1,3.4507044E-2,4.473684E-1,6.830986E-2,7.5438595E-1,3.3380282E-1,9.0112996E-1,6.4912283E-1,4.9122807E-1,9.1101694E-1,4.9435027E-2,3.9473686E-1,7.768361E-2,9.180791E-2,2.1186441E-2,3.9473686E-1,1.8079096E-1,7.105263E-1,1.9921403E-1,-3.452003E-2,-8.835715E-3,-2.4376325E-1,2.4007574E-1,-5.7644904E-2,1.1692132E-1,2.7929002E-2,-1.3614266E-1,-1.030459E-2,1.14232E-1,2.2764719E-1,-1.124437E-1,7.195056E-2,-2.3638192E-3,-1.70655E-1,4.1873407E-2,1.9093953E-1,-2.3168433E-1,-1.8295107E-2,-1.7647083E-1,-1.3744195E-2,2.3378296E-1,3.5036982E-3,8.912045E-2,2.1262462E-1,1.3243526E-1,2.44906E-3,-7.49308E-2,-2.1613593E-1,-8.377269E-2,9.0707615E-2,-1.2930588E-1,-2.1480523E-2,-1.1578386E-1,1.3990615E-1,-1.5519768E-1,2.6590789E-2,-1.442594E-1,2.8873442E-2,-1.2758157E-1,-1.7859681E-1,-1.2643813E-1,-4.3373685E-2,-1.911387E-1,-3.1443425E-2],"split_indices":[5,4,0,5,0,2,1,0,0,2,3,3,3,3,3,4,2,1,2,2,3,5,2,3,5,3,2,5,3,4,0,4,2,2,4,3,4,5,4,2,5,5,2,2,3,2,2,2,3,2,3,0,0,0,0,0,0,0,0,0,0,0,0,0,0,0,0,0,0,0,0,0,0,0,0,0,0,0,0,0,0,0,0,0,0,0,0,0,0,0,0,0,0,0,0,0,0],"split_type":[0,0,0,0,0,0,0,0,0,0,0,0,0,0,0,0,0,0,0,0,0,0,0,0,0,0,0,0,0,0,0,0,0,0,0,0,0,0,0,0,0,0,0,0,0,0,0,0,0,0,0,0,0,0,0,0,0,0,0,0,0,0,0,0,0,0,0,0,0,0,0,0,0,0,0,0,0,0,0,0,0,0,0,0,0,0,0,0,0,0,0,0,0,0,0,0,0],"sum_hessian":[7.2287974E3,1.8458704E3,5.382927E3,5.9438837E2,1.2514819E3,4.583747E2,4.9245522E3,5.932969E2,1.0915328E0,2.306397E2,1.0208423E3,6.0121193E1,3.982535E2,2.9665178E3,1.9580344E3,1.2194696E1,2.1844499E2,8.2718506E2,1.9365726E2,3.5508762E1,2.461243E1,1.8977382E2,2.0847968E2,2.439611E3,5.2690674E2,8.796821E2,1.0783523E3,6.252234E0,5.9424624E0,2.1696423E2,1.4807637E0,5.7060944E2,2.5657562E2,1.707207E2,2.2936546E1,2.5621992E1,9.886769E0,2.0513472E1,4.0989594E0,1.5837329E2,3.1400534E1,1.9943253E2,9.047144E0,2.9403418E2,2.145577E3,2.6214938E2,2.6475732E2,7.445394E1,8.052282E2,9.518883E2,1.2646392E2,4.798613E0,1.4536207E0,1.4963049E0,4.4461575E0,2.1596088E2,1.0033474E0,2.1728429E2,3.5332513E2,4.425881E1,2.1231682E2,4.7178986E1,1.23541725E2,6.38764E0,1.6548906E1,1.1833852E1,1.378814E1,1.0158768E0,8.870893E0,1.9122656E1,1.3908143E0,1.3552346E0,2.7437248E0,1.5598276E2,2.3905375E0,2.0546236E1,1.0854298E1,1.556497E2,4.3782825E1,2.9287193E0,6.118425E0,7.200156E1,2.2203262E2,8.760415E2,1.2695354E3,1.3403669E1,2.4874571E2,2.3452976E1,2.4130435E2,2.0324976E1,5.4128967E1,4.3878012E2,3.6644812E2,3.0628156E2,6.4560675E2,1.1255318E2,1.3910741E1],"tree_param":{"num_deleted":"0","num_feature":"6","num_nodes":"97","size_leaf_vector":"1"}},{"base_weights":[7.7380263E-3,8.4899706E-1,-1.3936944E-1,1.1665139E0,5.394684E-1,6.0439E-1,-2.1208774E-1,2.3357378E-1,5.3847995E-2,1.0612726E0,4.0911284E-1,-1.4535259E-1,7.7883023E-1,1.0018615E-2,-3.8843316E-1,5.2961326E-1,1.1594332E0,1.1496416E-1,6.3656926E-1,2.3294231E-1,-8.646082E-1,1.055686E0,4.8966423E-1,-9.67624E-2,5.0603807E-1,-4.3950087E-1,5.5274285E-2,7.614135E-1,-8.1551284E-1,2.3670773E-1,2.8393865E-1,3.157121E-1,3.0729027E-2,8.601504E-1,-7.083357E-2,-4.4435495E-1,8.1023675E-1,-9.534128E-1,1.7340781E-1,1.1294403E0,6.828981E-1,5.51348E-1,-1.0880934E0,-4.9384147E-2,-7.5807416E-1,1.0391272E0,3.7678605E-1,-3.3558804E-1,-6.266157E-1,-4.3040597E-1,2.8197202E-1,1.8660623E-1,-5.0900728E-2,3.9693397E-2,-2.86206E-1,-5.1897507E-2,1.19540274E-1,1.6325651E-1,-1.0653233E-2,8.497315E-2,2.0344162E-1,2.144084E-2,-1.4242275E-1,-1.4800495E-1,-2.7651316E-2,2.0465015E-1,-2.604327E-2,-2.1746946E-2,-1.9563052E-1,1.1444207E-1,-7.2678775E-2,2.2694044E-1,8.340155E-2,1.8151037E-1,6.832473E-2,1.6913871E-1,5.8925223E-2,-2.4736598E-1,-2.3997853E-2,-1.3956906E-1,-4.1493736E-4,-9.427573E-2,-2.2429343E-1,-1.0869918E-1,2.3199697E-1,1.12824954E-1,4.1418183E-3,-9.150389E-2,1.6193276E-2,-2.0677845E-1,-1.02029346E-1,1.3791531E-1,-1.3954572E-1,1.4349149E-1,7.674048E-3],"categories":[],"categories_nodes":[],"categories_segments":[],"categories_sizes":[],"default_left":[0,0,0,0,0,0,0,0,0,0,0,0,0,0,0,0,0,0,0,0,0,0,0,0,0,0,0,0,0,0,0,0,0,0,0,0,0,0,0,0,0,0,0,0,0,0,0,0,0,0,0,0,0,0,0,0,0,0,0,0,0,0,0,0,0,0,0,0,0,0,0,0,0,0,0,0,0,0,0,0,0,0,0,0,0,0,0,0,0,0,0,0,0,0,0],"id":5,"left_children":[1,3,5,7,9,11,13,-1,-1,15,17,19,21,23,25,27,29,31,33,35,37,39,41,43,45,47,49,51,53,-1,55,-1,57,59,61,63,65,67,69,71,73,75,77,79,81,83,85,87,89,91,93,-1,-1,-1,-1,-1,-1,-1,-1,-1,-1,-1,-1,-1,-1,-1,-1,-1,-1,-1,-1,-1,-1,-1,-1,-1,-1,-1,-1,-1,-1,-1,-1,-1,-1,-1,-1,-1,-1,-1,-1,-1,-1,-1,-1],"loss_changes":[8.6026355E2,1.0105432E2,3.2013428E2,3.0529785E-1,3.532831E1,6.9066376E1,2.111364E2,0E0,0E0,4.8377E0,2.8181213E1,2.7507532E1,3.373697E1,1.2646104E2,6.811087E1,6.27143E0,1.5072327E0,2.2805393E1,3.769191E1,2.638277E1,3.3734322E0,5.2148743E0,2.114907E1,6.152159E1,2.8750412E1,5.218634E1,3.4366337E1,3.0227623E0,2.2479413E0,0E0,7.784718E-1,0E0,1.16765175E1,1.193251E1,6.7055664E0,2.7277913E0,7.4019737E0,5.668125E-1,9.7623736E-1,2.0246887E-1,2.6409206E0,1.5155918E1,1.0439434E0,5.6276943E1,1.3148552E1,1.6308228E1,2.2800526E1,8.814726E1,4.5059387E1,3.0233143E1,2.2531942E1,0E0,0E0,0E0,0E0,0E0,0E0,0E0,0E0,0E0,0E0,0E0,0E0,0E0,0E0,0E0,0E0,0E0,0E0,0E0,0E0,0E0,0E0,0E0,0E0,0E0,0E0,0E0,0E0,0E0,0E0,0E0,0E0,0E0,0E0,0E0,0E0,0E0,0E0,0E0,0E0,0E0,0E0,0E0,0E0],"parents":[2147483647,0,0,1,1,2,2,3,3,4,4,5,5,6,6,9,9,10,10,11,11,12,12,13,13,14,14,15,15,16,16,17,17,18,18,19,19,20,20,21,21,22,22,23,23,24,24,25,25,26,26,27,27,28,28,30,30,32,32,33,33,34,34,35,35,36,36,37,37,38,38,39,39,40,40,41,41,42,42,43,43,44,44,45,45,46,46,47,47,48,48,49,49,50,50],"right_children":[2,4,6,8,10,12,14,-1,-1,16,18,20,22,24,26,28,30,32,34,36,38,40,42,44,46,48,50,52,54,-1,56,-1,58,60,62,64,66,68,70,72,74,76,78,80,82,84,86,88,90,92,94,-1,-1,-1,-1,-1,-1,-1,-1,-1,-1,-1,-1,-1,-1,-1,-1,-1,-1,-1,-1,-1,-1,-1,-1,-1,-1,-1,-1,-1,-1,-1,-1,-1,-1,-1,-1,-1,-1,-1,-1,-1,-1,-1,-1],"split_conditions":[3.7323944E-2,1.4084507E-3,1E0,8.77193E-3,1E0,7.4858755E-2,2.274648E-1,2.3357378E-1,5.3847995E-2,2.3684211E-1,4.2105263E-1,7.105263E-1,6.315789E-1,6.052632E-1,6.8421054E-1,1.8421052E-1,8.079096E-1,5.6497175E-3,4.9717513E-1,2.4011299E-2,7.719298E-1,3.1578946E-1,9.1101694E-1,8.079096E-1,6.315789E-1,3.8841808E-1,1.8926553E-1,3.028169E-2,1.1267605E-2,2.3670773E-1,8.615819E-1,3.157121E-1,2.631579E-2,1.6101696E-1,5.263158E-2,1.4124294E-2,4.5140845E-1,7.464789E-2,4.978873E-1,9.223164E-1,3.2062146E-1,2.2112677E-1,7.105263E-1,2.6836159E-2,5.5263156E-1,7.768361E-2,1E0,2.7824858E-1,3.4210527E-1,7.368421E-1,3.1779662E-1,1.8660623E-1,-5.0900728E-2,3.9693397E-2,-2.86206E-1,-5.1897507E-2,1.19540274E-1,1.6325651E-1,-1.0653233E-2,8.497315E-2,2.0344162E-1,2.144084E-2,-1.4242275E-1,-1.4800495E-1,-2.7651316E-2,2.0465015E-1,-2.604327E-2,-2.1746946E-2,-1.9563052E-1,1.1444207E-1,-7.2678775E-2,2.2694044E-1,8.340155E-2,1.8151037E-1,6.832473E-2,1.6913871E-1,5.8925223E-2,-2.4736598E-1,-2.3997853E-2,-1.3956906E-1,-4.1493736E-4,-9.427573E-2,-2.2429343E-1,-1.0869918E-1,2.3199697E-1,1.12824954E-1,4.1418183E-3,-9.150389E-2,1.6193276E-2,-2.0677845E-1,-1.02029346E-1,1.3791531E-1,-1.3954572E-1,1.4349149E-1,7.674048E-3],"split_indices":[4,4,0,5,0,2,4,0,0,3,3,3,3,3,3,3,2,2,2,2,5,5,2,2,3,2,2,4,4,0,2,0,3,2,5,2,4,4,4,2,2,4,3,2,3,2,1,2,3,3,2,0,0,0,0,0,0,0,0,0,0,0,0,0,0,0,0,0,0,0,0,0,0,0,0,0,0,0,0,0,0,0,0,0,0,0,0,0,0,0,0,0,0,0,0],"split_type":[0,0,0,0,0,0,0,0,0,0,0,0,0,0,0,0,0,0,0,0,0,0,0,0,0,0,0,0,0,0,0,0,0,0,0,0,0,0,0,0,0,0,0,0,0,0,0,0,0,0,0,0,0,0,0,0,0,0,0,0,0,0,0,0,0,0,0,0,0,0,0,0,0,0,0,0,0,0,0,0,0,0,0,0,0,0,0,0,0,0,0,0,0,0,0],"sum_hessian":[6.9493604E3,1.0336256E3,5.915735E3,5.088621E2,5.2476355E2,5.262243E2,5.3895103E3,5.077938E2,1.0683134E0,1.0346381E2,4.212997E2,9.9356705E1,4.2686758E2,2.3856887E3,3.0038218E3,1.712212E1,8.63417E1,1.843727E2,2.36927E2,6.555432E1,3.3802383E1,2.167215E2,2.1014609E2,1.9637465E3,4.2194226E2,2.693794E3,3.100278E2,1.4975412E1,2.1467073E0,8.3685684E1,2.6560152E0,9.068386E0,1.753043E2,1.7986356E2,5.7063446E1,3.0270475E1,3.5283848E1,3.1213503E1,2.5888789E0,1.7923164E2,3.7489853E1,2.0286545E2,7.280641E0,1.8334663E3,1.3028008E2,8.0965866E1,3.4097638E2,1.7337579E3,9.6003595E2,9.8373184E1,2.1165462E2,1.2881024E1,2.0943882E0,1.0668234E0,1.0798839E0,1.0355171E0,1.620498E0,1.6091602E1,1.592127E2,4.867266E1,1.311909E2,4.5315414E1,1.1748032E1,1.4676445E1,1.5594029E1,2.8696102E1,6.587746E0,1.0417211E0,3.0171782E1,1.4475199E0,1.141359E0,1.7732921E2,1.902436E0,2.1607073E1,1.5882782E1,9.343869E1,1.0942676E2,6.0704207E0,1.2102203E0,1.2373297E2,1.7097334E3,7.4109344E1,5.6170723E1,5.4962187E0,7.546965E1,2.2304434E2,1.1793205E2,1.3411005E3,3.926575E2,2.1173831E2,7.4829767E2,1.8651358E1,7.9721825E1,7.5226845E1,1.3642778E2],"tree_param":{"num_deleted":"0","num_feature":"6","num_nodes":"95","size_leaf_vector":"1"}},{"base_weights":[8.509552E-3,8.2530826E-1,-1.05949186E-1,1.1199237E0,4.9817073E-1,4.1277487E-2,-3.829893E-1,2.2429569E-1,4.8861578E-2,1.0044785E0,3.8083416E-1,3.2081726E-1,-1.2302977E-1,-1.6473469E-1,-4.5747328E-1,6.3044256E-1,1.0779643E0,4.6885255E-1,-3.4515694E-1,8.536812E-1,2.1234569E-1,-3.456867E-1,8.521414E-4,-3.517976E-1,7.399921E-2,-4.844763E-1,4.5297634E-2,8.88382E-1,-5.00101E-1,2.2258799E-1,1.6749525E-1,1.9751292E-1,7.193015E-1,-5.10568E-2,-6.3888013E-1,-8.994979E-1,9.204873E-1,1.1002172E-1,7.08574E-1,1.9765663E-1,-5.135028E-1,5.388001E-1,-1.2313668E-1,9.775604E-1,-3.8118723E-1,1.3021016E-1,-9.3974817E-1,-9.883762E-1,-4.5898208E-1,2.6337364E-1,-6.893471E-1,2.1278596E-1,2.3366611E-2,-1.841497E-1,3.634039E-2,7.9303116E-2,-3.610848E-2,1.4936753E-2,2.0810406E-1,1.6195548E-1,4.1558895E-2,-3.9874673E-2,2.0518959E-1,-1.5282126E-1,2.380517E-2,-4.2673025E-2,-1.9583169E-1,2.071441E-1,5.793447E-2,-7.7189417E-3,5.8475118E-2,1.8454649E-1,9.481961E-2,-6.0174562E-2,6.964947E-2,-7.5975925E-2,-2.0142841E-1,-1.7987797E-1,2.0220156E-1,-1.0438173E-1,1.4094404E-2,8.166065E-2,2.2389829E-1,-1.7303139E-1,-6.488761E-2,-6.288016E-2,5.8550924E-2,-1.0252626E-1,-2.4806912E-1,-1.3833527E-1,-2.2399533E-1,1.620832E-1,-9.406603E-2,-4.7225766E-2,7.235325E-2,-1.5787525E-1,5.939118E-2],"categories":[],"categories_nodes":[],"categories_segments":[],"categories_sizes":[],"default_left":[0,0,0,0,0,0,0,0,0,0,0,0,0,0,0,0,0,0,0,0,0,0,0,0,0,0,0,0,0,0,0,0,0,0,0,0,0,0,0,0,0,0,0,0,0,0,0,0,0,0,0,0,0,0,0,0,0,0,0,0,0,0,0,0,0,0,0,0,0,0,0,0,0,0,0,0,0,0,0,0,0,0,0,0,0,0,0,0,0,0,0,0,0,0,0,0,0],"id":6,"left_children":[1,3,5,7,9,11,13,-1,-1,15,17,19,21,23,25,27,29,31,33,35,37,39,41,43,45,47,49,51,53,-1,55,57,59,61,63,65,67,69,71,73,75,77,79,81,83,85,87,89,91,93,95,-1,-1,-1,-1,-1,-1,-1,-1,-1,-1,-1,-1,-1,-1,-1,-1,-1,-1,-1,-1,-1,-1,-1,-1,-1,-1,-1,-1,-1,-1,-1,-1,-1,-1,-1,-1,-1,-1,-1,-1,-1,-1,-1,-1,-1,-1],"loss_changes":[6.2744403E2,7.8943665E1,2.4011476E2,3.1573486E-1,2.294516E1,1.7662987E2,3.3133636E1,0E0,0E0,1.3342896E0,2.063546E1,8.210112E1,6.681172E1,2.33079E1,2.069165E1,4.6551127E0,1.7187729E0,1.9305645E1,3.0098672E0,2.898912E1,6.004678E1,7.905503E1,1.039368E2,1.1799355E1,1.3220692E1,1.8109161E1,1.276059E1,1.5169411E0,1.12014E0,0E0,3.418321E-1,1.428811E1,6.701355E0,3.1893723E0,1.755157E0,3.01126E-1,1.6572174E1,2.6647892E1,9.718193E0,1.5498776E1,4.3273514E1,1.9913565E2,9.78104E1,7.669926E-2,7.5980606E0,1.5894632E1,9.30212E-1,1.9085236E0,2.0220734E1,3.096579E0,2.0348167E0,0E0,0E0,0E0,0E0,0E0,0E0,0E0,0E0,0E0,0E0,0E0,0E0,0E0,0E0,0E0,0E0,0E0,0E0,0E0,0E0,0E0,0E0,0E0,0E0,0E0,0E0,0E0,0E0,0E0,0E0,0E0,0E0,0E0,0E0,0E0,0E0,0E0,0E0,0E0,0E0,0E0,0E0,0E0,0E0,0E0,0E0],"parents":[2147483647,0,0,1,1,2,2,3,3,4,4,5,5,6,6,9,9,10,10,11,11,12,12,13,13,14,14,15,15,16,16,17,17,18,18,19,19,20,20,21,21,22,22,23,23,24,24,25,25,26,26,27,27,28,28,30,30,31,31,32,32,33,33,34,34,35,35,36,36,37,37,38,38,39,39,40,40,41,41,42,42,43,43,44,44,45,45,46,46,47,47,48,48,49,49,50,50],"right_children":[2,4,6,8,10,12,14,-1,-1,16,18,20,22,24,26,28,30,32,34,36,38,40,42,44,46,48,50,52,54,-1,56,58,60,62,64,66,68,70,72,74,76,78,80,82,84,86,88,90,92,94,96,-1,-1,-1,-1,-1,-1,-1,-1,-1,-1,-1,-1,-1,-1,-1,-1,-1,-1,-1,-1,-1,-1,-1,-1,-1,-1,-1,-1,-1,-1,-1,-1,-1,-1,-1,-1,-1,-1,-1,-1,-1,-1,-1,-1,-1,-1],"split_conditions":[3.028169E-2,1.4084507E-3,1E0,8.77193E-3,1E0,1.6478874E-1,1.491228E-1,2.2429569E-1,4.8861578E-2,2.3684211E-1,6.9491524E-1,1E0,3.9473686E-1,5E-1,7.631579E-1,2.631579E-2,8.079096E-1,4.2105263E-1,2.631579E-2,1.4124294E-2,6.052632E-1,3.1578946E-1,5.263158E-1,5.263158E-2,8.898305E-1,3.3898305E-2,6.5140843E-1,1.3157895E-1,1.3380282E-2,2.2258799E-1,1.754386E-2,4.420904E-1,4.90113E-1,6.8421054E-1,9.519774E-1,1.0526316E-1,6.5789473E-1,2.7683616E-1,6.5789473E-1,4.9435027E-2,4.0254238E-1,6.214689E-2,5.7894737E-1,1.4124294E-2,2.4011299E-2,1.779661E-1,9.336158E-1,3.1578946E-1,1.8421052E-1,1.1723164E-1,9.253521E-1,2.1278596E-1,2.3366611E-2,-1.841497E-1,3.634039E-2,7.9303116E-2,-3.610848E-2,1.4936753E-2,2.0810406E-1,1.6195548E-1,4.1558895E-2,-3.9874673E-2,2.0518959E-1,-1.5282126E-1,2.380517E-2,-4.2673025E-2,-1.9583169E-1,2.071441E-1,5.793447E-2,-7.7189417E-3,5.8475118E-2,1.8454649E-1,9.481961E-2,-6.0174562E-2,6.964947E-2,-7.5975925E-2,-2.0142841E-1,-1.7987797E-1,2.0220156E-1,-1.0438173E-1,1.4094404E-2,8.166065E-2,2.2389829E-1,-1.7303139E-1,-6.488761E-2,-6.288016E-2,5.8550924E-2,-1.0252626E-1,-2.4806912E-1,-1.3833527E-1,-2.2399533E-1,1.620832E-1,-9.406603E-2,-4.7225766E-2,7.235325E-2,-1.5787525E-1,5.939118E-2],"split_indices":[4,4,1,5,0,4,5,0,0,3,2,0,3,3,3,5,2,3,5,2,3,3,3,3,2,2,4,3,4,0,5,2,2,3,2,3,3,2,3,2,2,2,3,2,2,2,2,3,3,2,4,0,0,0,0,0,0,0,0,0,0,0,0,0,0,0,0,0,0,0,0,0,0,0,0,0,0,0,0,0,0,0,0,0,0,0,0,0,0,0,0,0,0,0,0,0,0],"split_type":[0,0,0,0,0,0,0,0,0,0,0,0,0,0,0,0,0,0,0,0,0,0,0,0,0,0,0,0,0,0,0,0,0,0,0,0,0,0,0,0,0,0,0,0,0,0,0,0,0,0,0,0,0,0,0,0,0,0,0,0,0,0,0,0,0,0,0,0,0,0,0,0,0,0,0,0,0,0,0,0,0,0,0,0,0,0,0,0,0,0,0,0,0,0,0,0,0],"sum_hessian":[6.7094316E3,8.238777E2,5.8855537E3,4.3221103E2,3.9166666E2,3.8437378E3,2.0418162E3,4.311647E2,1.046328E0,7.226826E1,3.193984E2,1.4225565E3,2.4211812E3,5.20334E2,1.5214822E3,1.3439857E1,5.8828396E1,2.8517795E2,3.4220474E1,2.3944055E2,1.183116E3,8.6489215E2,1.5562891E3,2.9147308E2,2.2886093E2,1.4439655E3,7.751669E1,1.1117532E1,2.3223245E0,5.6437958E1,2.390441E0,1.3773871E2,1.4743924E2,1.76858E1,1.6534672E1,8.331609E0,2.3110895E2,9.818723E2,2.012437E2,2.0405122E2,6.6084094E2,2.9088522E2,1.2654038E3,5.6067147E0,2.8586636E2,2.1766333E2,1.1197589E1,6.771875E1,1.3762467E3,6.0267925E1,1.724877E1,8.748145E0,2.3693874E0,1.2194852E0,1.1028392E0,1.3577241E0,1.0327168E0,1.211721E2,1.6566612E1,1.2478417E2,2.2655064E1,1.6261305E1,1.4244967E0,1.4183072E1,2.3515997E0,1.2493262E0,7.0822825E0,1.9486955E2,3.623939E1,5.4141406E2,4.4045822E2,1.0364465E2,9.759905E1,4.7106747E1,1.5694447E2,5.2145734E2,1.3938364E2,7.167674E1,2.1920848E2,4.1301968E2,8.5238416E2,1.8926089E0,3.7141058E0,2.850699E1,2.5735938E2,5.8021572E1,1.5964177E2,5.742907E0,5.454682E0,2.2729593E1,4.4989155E1,1.1570363E1,1.3646764E3,9.687622E0,5.0580303E1,1.5841784E1,1.4069859E0],"tree_param":{"num_deleted":"0","num_feature":"6","num_nodes":"97","size_leaf_vector":"1"}},{"base_weights":[8.365119E-3,9.1056806E-1,-7.106924E-2,2.1683586E-1,5.0856173E-1,1.3608669E-1,-2.3167323E-1,5.700977E-1,-2.0595714E-1,7.582262E-1,6.0664505E-2,-1.900864E-1,-7.35898E-1,6.401647E-1,-1.1392975E-2,1.7094897E-1,-3.8320354E-1,8.958547E-1,2.23399E-1,-2.6316747E-2,4.8557416E-1,-7.3282224E-1,-1.559365E-1,-7.7239686E-1,-3.343254E-1,2.6369515E-1,5.8691907E-1,3.1378376E-1,-6.0810226E-1,-5.308725E-1,8.640846E-2,-8.526307E-2,9.8633534E-1,-6.224773E-1,4.974037E-1,7.627167E-2,-2.7905676E-1,9.910881E-1,3.641202E-1,-4.33457E-1,-9.301597E-1,3.9700288E-1,-1.9469431E-1,-6.096923E-1,-9.048144E-1,-5.9110537E-2,-9.0744483E-1,-1.2901463E-1,1.3604239E-1,1.6210653E-1,-4.3620467E-2,-1.8278685E-1,-8.8735356E-4,1.6223803E-2,-1.4100909E-1,4.0034752E-2,-1.2662302E-1,2.0704071E-1,4.3890312E-2,-1.813814E-1,7.5473964E-2,-1.6239385E-1,1.6038394E-1,-1.5083573E-2,1.02642454E-1,-1.6292468E-1,-2.0383516E-2,-1.0045884E-1,2.2230624E-1,1.030429E-1,1.8515268E-2,-1.1945325E-1,-2.8518764E-2,-2.2002514E-1,-1.1130505E-1,1.5512288E-1,3.921596E-2,-2.3174567E-2,-8.503955E-2,-1.7350976E-1,-5.7897806E-2,7.8657806E-2,-1.8397804E-1,-1.9637801E-1,4.904914E-2,-2.1680477E-1,1.6049966E-3],"categories":[],"categories_nodes":[],"categories_segments":[],"categories_sizes":[],"default_left":[0,0,0,0,0,0,0,0,0,0,0,0,0,0,0,0,0,0,0,0,0,0,0,0,0,0,0,0,0,0,0,0,0,0,0,0,0,0,0,0,0,0,0,0,0,0,0,0,0,0,0,0,0,0,0,0,0,0,0,0,0,0,0,0,0,0,0,0,0,0,0,0,0,0,0,0,0,0,0,0,0,0,0,0,0,0,0],"id":7,"left_children":[1,3,5,-1,7,9,11,13,15,17,19,21,23,25,27,-1,29,31,33,35,37,39,41,43,45,-1,47,49,51,53,-1,55,57,59,61,63,65,67,69,71,73,75,77,79,81,83,85,-1,-1,-1,-1,-1,-1,-1,-1,-1,-1,-1,-1,-1,-1,-1,-1,-1,-1,-1,-1,-1,-1,-1,-1,-1,-1,-1,-1,-1,-1,-1,-1,-1,-1,-1,-1,-1,-1,-1,-1],"loss_changes":[4.6483783E2,3.608026E1,1.983681E2,0E0,7.1605988E0,1.22143265E2,7.028238E1,6.0271225E0,2.8536487E0,2.0517975E1,8.5889755E1,5.741356E1,3.4871368E0,3.9892426E0,3.4644387E0,0E0,1.6984375E0,1.992723E1,1.3970139E1,5.0054626E1,2.388311E1,1.0435364E1,6.268451E1,4.4786987E0,3.5826402E0,0E0,1.4700356E1,3.2363415E0,1.1574566E0,1.2062893E0,0E0,3.2220805E0,7.4455414E0,4.56962E0,1.8623264E1,9.106309E1,5.279204E1,1.4212585E1,1.3079922E1,3.477027E0,6.354553E0,1.4429918E1,4.956359E1,8.651695E0,2.840416E0,4.9154263E0,1.2064404E0,0E0,0E0,0E0,0E0,0E0,0E0,0E0,0E0,0E0,0E0,0E0,0E0,0E0,0E0,0E0,0E0,0E0,0E0,0E0,0E0,0E0,0E0,0E0,0E0,0E0,0E0,0E0,0E0,0E0,0E0,0E0,0E0,0E0,0E0,0E0,0E0,0E0,0E0,0E0,0E0],"parents":[2147483647,0,0,1,1,2,2,4,4,5,5,6,6,7,7,8,8,9,9,10,10,11,11,12,12,13,13,14,14,16,16,17,17,18,18,19,19,20,20,21,21,22,22,23,23,24,24,26,26,27,27,28,28,29,29,31,31,32,32,33,33,34,34,35,35,36,36,37,37,38,38,39,39,40,40,41,41,42,42,43,43,44,44,45,45,46,46],"right_children":[2,4,6,-1,8,10,12,14,16,18,20,22,24,26,28,-1,30,32,34,36,38,40,42,44,46,-1,48,50,52,54,-1,56,58,60,62,64,66,68,70,72,74,76,78,80,82,84,86,-1,-1,-1,-1,-1,-1,-1,-1,-1,-1,-1,-1,-1,-1,-1,-1,-1,-1,-1,-1,-1,-1,-1,-1,-1,-1,-1,-1,-1,-1,-1,-1,-1,-1,-1,-1,-1,-1,-1,-1],"split_conditions":[1.754386E-2,1.4084507E-3,1.9298245E-1,2.1683586E-1,2.6760563E-2,1E0,8.1920904E-1,6.3559324E-1,5.263158E-2,6.5789473E-1,6.052632E-1,4.0960453E-2,7.105263E-1,5.6497175E-3,5.5263156E-1,1.7094897E-1,4.90113E-1,2.4011299E-2,9.180791E-2,3.9265537E-1,6.315789E-1,3.6842105E-1,1E0,5.5263156E-1,5.316901E-1,2.6369515E-1,9.887005E-3,1E0,1E0,4.519774E-2,8.640846E-2,4.7368422E-1,7.6129943E-1,3.302817E-1,6.8421054E-1,2.7824858E-1,3.4210527E-1,7.768361E-2,1E0,2.4011299E-2,3.2485876E-2,6.315789E-1,5.316901E-1,4.473684E-1,7.042254E-2,2.1619718E-1,8.725352E-1,-1.2901463E-1,1.3604239E-1,1.6210653E-1,-4.3620467E-2,-1.8278685E-1,-8.8735356E-4,1.6223803E-2,-1.4100909E-1,4.0034752E-2,-1.2662302E-1,2.0704071E-1,4.3890312E-2,-1.813814E-1,7.5473964E-2,-1.6239385E-1,1.6038394E-1,-1.5083573E-2,1.02642454E-1,-1.6292468E-1,-2.0383516E-2,-1.0045884E-1,2.2230624E-1,1.030429E-1,1.8515268E-2,-1.1945325E-1,-2.8518764E-2,-2.2002514E-1,-1.1130505E-1,1.5512288E-1,3.921596E-2,-2.3174567E-2,-8.503955E-2,-1.7350976E-1,-5.7897806E-2,7.8657806E-2,-1.8397804E-1,-1.9637801E-1,4.904914E-2,-2.1680477E-1,1.6049966E-3],"split_indices":[5,4,5,0,4,0,2,2,3,3,3,2,3,2,3,0,2,2,2,2,3,3,0,3,4,0,2,1,1,2,0,3,2,4,3,2,3,2,1,2,2,3,4,3,4,4,4,0,0,0,0,0,0,0,0,0,0,0,0,0,0,0,0,0,0,0,0,0,0,0,0,0,0,0,0,0,0,0,0,0,0,0,0,0,0,0,0],"split_type":[0,0,0,0,0,0,0,0,0,0,0,0,0,0,0,0,0,0,0,0,0,0,0,0,0,0,0,0,0,0,0,0,0,0,0,0,0,0,0,0,0,0,0,0,0,0,0,0,0,0,0,0,0,0,0,0,0,0,0,0,0,0,0,0,0,0,0,0,0,0,0,0,0,0,0,0,0,0,0,0,0,0,0,0,0,0,0],"sum_hessian":[6.4842744E3,5.2386255E2,5.9604116E3,3.6467596E2,1.591866E2,2.603031E3,3.3573809E3,1.4675026E2,1.2436342E1,2.8046762E2,2.3225632E3,3.1028452E3,2.5453566E2,1.3087903E2,1.587123E1,1.2333295E0,1.1203012E1,2.2252869E2,5.7938927E1,1.9286886E3,3.938747E2,1.8246803E2,2.9203772E3,2.3248198E2,2.205368E1,7.796391E0,1.2308264E2,1.0579871E1,5.291358E0,9.780286E0,1.4227262E0,1.8794117E1,2.0373457E2,1.3864925E1,4.4074E1,1.3723452E3,5.5634344E2,7.491293E1,3.1896176E2,7.3763596E1,1.08704445E2,1.9068738E2,2.7296897E3,1.06826294E2,1.2565569E2,1.5644331E1,6.409349E0,8.247998E0,1.1483464E2,5.199745E0,5.380126E0,3.1709177E0,2.1204402E0,2.2851648E0,7.4951215E0,1.2773569E1,6.020548E0,1.9120076E2,1.2533804E1,1.0866617E1,2.9983077E0,8.001655E0,3.6072346E1,1.01930707E3,3.5303812E2,1.3738171E2,4.1896173E2,5.3542886E0,6.955865E1,2.0435551E2,1.1460625E2,4.6514168E1,2.7249424E1,7.33797E1,3.532474E1,6.5119156E1,1.2556822E2,2.0352361E3,6.944537E2,5.822716E1,4.859913E1,1.154556E0,1.2450114E2,3.3280067E0,1.2316324E1,5.2186418E0,1.1907074E0],"tree_param":{"num_deleted":"0","num_feature":"6","num_nodes":"87","size_leaf_vector":"1"}},{"base_weights":[8.264437E-3,9.8113996E-1,-4.92964E-2,1.0515583E0,4.8912197E-1,6.8535596E-2,-2.7656868E-1,2.114729E-1,5.8283985E-1,5.452791E-1,-2.1334298E-2,2.9403973E-1,-7.091254E-2,-4.25283E-1,-1.787301E-1,1.6924153E-1,-1.2777251E-2,5.9960544E-1,-9.3407944E-2,2.3219001E-1,-7.905141E-2,7.7992004E-1,2.0498475E-1,-3.86669E-2,-6.3747126E-1,-2.5807053E-1,-7.8408164E-1,-6.0576197E-2,-3.4742925E-1,2.7985886E-1,6.920188E-1,-1.2133225E-1,8.346351E-2,1.4550547E-1,-5.19553E-2,-3.787955E-1,8.368383E-1,-2.7624508E-3,3.5068652E-1,-2.3642156E-1,7.768369E-2,-6.727195E-1,7.869935E-1,8.427131E-1,-2.9111E-1,-9.935184E-1,-5.82787E-1,-2.9341874E-1,1.4009392E-1,-5.2496105E-1,-1.047556E-1,1.9119261E-1,-2.3936529E-2,1.6544656E-1,8.0587715E-2,1.5109739E-1,-1.1597841E-1,1.866873E-1,6.283454E-2,8.32493E-2,-5.000676E-2,-9.846725E-2,8.4006004E-2,-5.831462E-2,2.4127062E-1,-1.0816778E-1,3.07057E-2,-3.1544834E-2,-1.5259823E-1,1.9490694E-1,4.4427793E-2,1.9672386E-1,-5.7186134E-2,-8.05242E-2,7.984328E-3,-5.3377993E-2,-2.3316908E-1,8.025143E-2,-1.6044976E-1,3.3351727E-2,-1.2229035E-1,5.595954E-2,-5.2935816E-2,6.343978E-2,-1.1277094E-1,-1.7827E-1,7.118262E-3],"categories":[],"categories_nodes":[],"categories_segments":[],"categories_sizes":[],"default_left":[0,0,0,0,0,0,0,0,0,0,0,0,0,0,0,0,0,0,0,0,0,0,0,0,0,0,0,0,0,0,0,0,0,0,0,0,0,0,0,0,0,0,0,0,0,0,0,0,0,0,0,0,0,0,0,0,0,0,0,0,0,0,0,0,0,0,0,0,0,0,0,0,0,0,0,0,0,0,0,0,0,0,0,0,0,0,0],"id":8,"left_children":[1,3,5,7,9,11,13,-1,15,17,19,21,23,25,27,-1,-1,29,31,33,-1,35,37,39,41,43,45,47,49,51,53,-1,-1,-1,-1,55,57,59,61,63,65,67,69,71,73,75,77,79,81,83,85,-1,-1,-1,-1,-1,-1,-1,-1,-1,-1,-1,-1,-1,-1,-1,-1,-1,-1,-1,-1,-1,-1,-1,-1,-1,-1,-1,-1,-1,-1,-1,-1,-1,-1,-1,-1],"loss_changes":[3.5306934E2,1.168811E1,1.5943475E2,2.1987915E-1,1.329258E0,1.2332389E2,2.950003E1,0E0,1.0738811E0,1.4941187E0,6.1486834E-1,6.4677765E1,4.4253075E1,4.8148712E1,2.4452183E1,0E0,0E0,9.3902206E-1,1.3316613E0,1.14385E0,0E0,1.56010895E1,3.8373013E1,5.280528E1,7.079254E0,2.0292503E1,1.0200851E1,3.3836426E1,2.172393E1,2.8897114E0,8.0252075E-1,0E0,0E0,0E0,0E0,3.070186E0,1.0875122E1,5.435084E1,4.376528E1,6.799226E1,6.787686E1,5.8227844E0,1.6602826E-1,2.8765059E0,1.9797844E1,1.5202805E1,2.9001942E1,4.9148567E1,2.2080393E1,9.7332E0,2.3747574E1,0E0,0E0,0E0,0E0,0E0,0E0,0E0,0E0,0E0,0E0,0E0,0E0,0E0,0E0,0E0,0E0,0E0,0E0,0E0,0E0,0E0,0E0,0E0,0E0,0E0,0E0,0E0,0E0,0E0,0E0,0E0,0E0,0E0,0E0,0E0,0E0],"parents":[2147483647,0,0,1,1,2,2,3,3,4,4,5,5,6,6,8,8,9,9,10,10,11,11,12,12,13,13,14,14,17,17,18,18,19,19,21,21,22,22,23,23,24,24,25,25,26,26,27,27,28,28,29,29,30,30,35,35,36,36,37,37,38,38,39,39,40,40,41,41,42,42,43,43,44,44,45,45,46,46,47,47,48,48,49,49,50,50],"right_children":[2,4,6,8,10,12,14,-1,16,18,20,22,24,26,28,-1,-1,30,32,34,-1,36,38,40,42,44,46,48,50,52,54,-1,-1,-1,-1,56,58,60,62,64,66,68,70,72,74,76,78,80,82,84,86,-1,-1,-1,-1,-1,-1,-1,-1,-1,-1,-1,-1,-1,-1,-1,-1,-1,-1,-1,-1,-1,-1,-1,-1,-1,-1,-1,-1,-1,-1,-1,-1,-1,-1,-1,-1],"split_conditions":[8.77193E-3,1.4084507E-3,1E0,9.1101694E-1,9.15493E-3,1.5704225E-1,4.2105263E-1,2.114729E-1,2.8947368E-1,7.372881E-1,1E0,1E0,8.305085E-1,3.9473686E-1,4.3220338E-1,1.6924153E-1,-1.2777251E-2,4.519774E-2,8.502825E-1,3.4210527E-1,-7.905141E-2,1.4124294E-2,3.9473686E-1,3.9473686E-1,8.947368E-1,2.631579E-2,1.2853107E-1,1.8079096E-1,5.7894737E-1,5.6497175E-3,3.4039548E-1,-1.2133225E-1,8.346351E-2,1.4550547E-1,-5.19553E-2,5.6497175E-3,6.5789473E-1,3.1578946E-1,5.9322033E-2,4.6468925E-1,6.638418E-2,5E-1,3.2464787E-1,4.6468925E-1,3.4210527E-1,7.768361E-2,3.3474576E-1,5.7894737E-1,4.6126762E-1,4.562147E-1,4.6468925E-1,1.9119261E-1,-2.3936529E-2,1.6544656E-1,8.0587715E-2,1.5109739E-1,-1.1597841E-1,1.866873E-1,6.283454E-2,8.32493E-2,-5.000676E-2,-9.846725E-2,8.4006004E-2,-5.831462E-2,2.4127062E-1,-1.0816778E-1,3.07057E-2,-3.1544834E-2,-1.5259823E-1,1.9490694E-1,4.4427793E-2,1.9672386E-1,-5.7186134E-2,-8.05242E-2,7.984328E-3,-5.3377993E-2,-2.3316908E-1,8.025143E-2,-1.6044976E-1,3.3351727E-2,-1.2229035E-1,5.595954E-2,-5.2935816E-2,6.343978E-2,-1.1277094E-1,-1.7827E-1,7.118262E-3],"split_indices":[5,4,1,2,4,4,3,0,3,2,1,0,2,3,2,0,0,2,2,3,0,2,3,3,3,3,2,2,3,2,2,0,0,0,0,2,3,3,2,2,2,3,4,2,3,2,2,3,4,2,2,0,0,0,0,0,0,0,0,0,0,0,0,0,0,0,0,0,0,0,0,0,0,0,0,0,0,0,0,0,0,0,0,0,0,0,0],"split_type":[0,0,0,0,0,0,0,0,0,0,0,0,0,0,0,0,0,0,0,0,0,0,0,0,0,0,0,0,0,0,0,0,0,0,0,0,0,0,0,0,0,0,0,0,0,0,0,0,0,0,0,0,0,0,0,0,0,0,0,0,0,0,0,0,0,0,0,0,0,0,0,0,0,0,0,0,0,0,0,0,0,0,0,0,0,0,0],"sum_hessian":[6.3029985E3,3.5119327E2,5.951805E3,3.0622824E2,4.4965046E1,3.920088E3,2.0317175E3,3.0124078E2,4.9874306E0,4.0447094E1,4.517951E0,1.4974407E3,2.4226472E3,8.0491003E2,1.2268075E3,3.3249536E0,1.6624768E0,3.7332783E1,3.1143124E0,2.91833E0,1.5996213E0,2.3074544E2,1.2666952E3,2.2931982E3,1.2944894E2,5.5021173E2,2.5469829E2,7.2228845E2,5.0451904E2,9.273876E0,2.8058907E1,1.459623E0,1.6546893E0,1.215593E0,1.7027369E0,1.0539158E1,2.2020628E2,5.225724E2,7.441228E2,8.490622E2,1.4441361E3,1.2683808E2,2.610856E0,1.5318995E1,5.3489276E2,1.2289583E2,1.3180246E2,3.3412857E2,3.8815988E2,2.9069394E2,2.1382509E2,2.9274294E0,6.346447E0,1.7848753E1,1.0210154E1,1.1719503E0,9.367208E0,1.8519325E2,3.5013027E1,1.9368456E2,3.2888782E2,5.6092686E1,6.880301E2,8.1856946E2,3.0492754E1,1.5707135E2,1.2870647E3,1.932681E1,1.0751127E2,1.4155767E0,1.1952794E0,1.3732986E1,1.5860088E0,3.999498E2,1.3494293E2,2.4047333E1,9.8848495E1,2.3883402E1,1.0791907E2,1.3674348E2,1.9738509E2,2.8879398E2,9.9365906E1,1.2516663E1,2.7817728E2,3.156477E1,1.8226031E2],"tree_param":{"num_deleted":"0","num_feature":"6","num_nodes":"87","size_leaf_vector":"1"}},{"base_weights":[7.5632087E-3,9.882956E-1,-3.8625576E-2,1.0205832E0,4.5594922E-1,1.4991099E-1,-1.5091729E-1,2.0543471E-1,5.361757E-1,6.6319466E-1,-1.2495361E-1,6.7222816E-1,9.1461584E-2,-1.1779649E-1,-5.4662055E-1,1.6120602E-1,-1.1100541E-2,6.608699E-2,7.840199E-1,-3.7858877E-1,7.249634E-2,1.211449E-1,8.235466E-1,3.0102272E-2,4.1824013E-1,-6.6452545E-1,-9.3587525E-2,-4.7630873E-1,-8.2196414E-1,1.3503842E-1,-1.1770008E-1,1.9676623E-1,3.9549455E-1,1.4885887E-2,-1.1561214E-1,4.1149727E-1,-7.264664E-1,8.7013555E-1,-4.8200187E-1,1.1783265E-1,-1.9490662E-1,9.041197E-1,2.942755E-1,-3.408213E-1,-9.365756E-1,-5.5323552E-2,-4.6223974E-1,-3.995342E-1,-8.2583445E-1,6.662417E-2,-8.74747E-1,1.2830053E-1,-6.522619E-2,-3.4679897E-2,1.4560153E-1,-2.4150058E-3,-2.0826827E-1,1.8097179E-1,6.9679804E-2,1.3454951E-1,-2.3932481E-1,-1.167226E-4,9.271593E-2,-1.24751605E-1,-9.217312E-3,-8.517008E-2,2.0236544E-1,1.0279337E-1,1.3806755E-2,-9.677668E-2,4.5864027E-2,-1.04632474E-1,-2.123837E-1,-2.0413605E-2,6.0077675E-2,-8.336561E-2,-1.609613E-1,-8.2881756E-2,1.8954845E-1,-1.754051E-1,4.0123653E-2,-1.3157031E-1,2.1232112E-1,-1.8069796E-1,4.4370737E-2],"categories":[],"categories_nodes":[],"categories_segments":[],"categories_sizes":[],"default_left":[0,0,0,0,0,0,0,0,0,0,0,0,0,0,0,0,0,0,0,0,0,0,0,0,0,0,0,0,0,0,0,0,0,0,0,0,0,0,0,0,0,0,0,0,0,0,0,0,0,0,0,0,0,0,0,0,0,0,0,0,0,0,0,0,0,0,0,0,0,0,0,0,0,0,0,0,0,0,0,0,0,0,0,0,0],"id":9,"left_children":[1,3,5,7,9,11,13,-1,15,17,19,21,23,25,27,-1,-1,29,31,33,-1,35,37,39,41,43,45,47,49,-1,-1,-1,51,-1,-1,53,55,57,59,61,63,65,67,69,71,73,75,77,79,81,83,-1,-1,-1,-1,-1,-1,-1,-1,-1,-1,-1,-1,-1,-1,-1,-1,-1,-1,-1,-1,-1,-1,-1,-1,-1,-1,-1,-1,-1,-1,-1,-1,-1,-1],"loss_changes":[2.7757007E2,4.271759E0,1.2391769E2,2.7624512E-1,2.197794E0,6.664282E1,4.8010376E1,0E0,9.3390656E-1,8.937659E-1,8.123591E-1,1.8224052E1,3.9411522E1,4.4755424E1,5.088112E0,0E0,0E0,1.712236E0,4.4999838E-1,4.1179925E-1,0E0,1.223774E1,1.0895027E1,3.2721466E1,1.8451126E1,1.2310379E1,4.5730278E1,5.7841377E0,2.6940346E0,0E0,0E0,0E0,1.1577482E0,0E0,0E0,6.933617E0,2.8530278E0,2.7038574E0,6.233069E0,4.8819637E1,2.9651394E1,9.410358E0,1.2289274E1,5.5809064E0,3.452713E0,4.8912567E1,4.40744E0,4.175268E0,2.2828026E0,3.6395404E0,1.874649E0,0E0,0E0,0E0,0E0,0E0,0E0,0E0,0E0,0E0,0E0,0E0,0E0,0E0,0E0,0E0,0E0,0E0,0E0,0E0,0E0,0E0,0E0,0E0,0E0,0E0,0E0,0E0,0E0,0E0,0E0,0E0,0E0,0E0,0E0],"parents":[2147483647,0,0,1,1,2,2,3,3,4,4,5,5,6,6,8,8,9,9,10,10,11,11,12,12,13,13,14,14,17,17,18,18,19,19,21,21,22,22,23,23,24,24,25,25,26,26,27,27,28,28,32,32,35,35,36,36,37,37,38,38,39,39,40,40,41,41,42,42,43,43,44,44,45,45,46,46,47,47,48,48,49,49,50,50],"right_children":[2,4,6,8,10,12,14,-1,16,18,20,22,24,26,28,-1,-1,30,32,34,-1,36,38,40,42,44,46,48,50,-1,-1,-1,52,-1,-1,54,56,58,60,62,64,66,68,70,72,74,76,78,80,82,84,-1,-1,-1,-1,-1,-1,-1,-1,-1,-1,-1,-1,-1,-1,-1,-1,-1,-1,-1,-1,-1,-1,-1,-1,-1,-1,-1,-1,-1,-1,-1,-1,-1,-1],"split_conditions":[2.8169013E-3,1.4084507E-3,1.5789473E-1,9.1101694E-1,1E0,1E0,8.079096E-1,2.0543471E-1,2.8947368E-1,2.6836159E-2,3.9473686E-1,9.180791E-2,6.052632E-1,3.2485876E-2,9.6468925E-1,1.6120602E-1,-1.1100541E-2,8.474576E-3,4.2105263E-1,2.1052632E-1,7.249634E-2,6.315789E-1,9.0112996E-1,3.9265537E-1,6.315789E-1,3.6842105E-1,6.9507045E-1,5.9859157E-1,3.1578946E-1,1.3503842E-1,-1.1770008E-1,1.9676623E-1,3.7429377E-1,1.4885887E-2,-1.1561214E-1,1.4124294E-2,7.8947365E-2,2.2535211E-1,6.052632E-1,2.7824858E-1,3.4210527E-1,7.768361E-2,3.5875705E-1,2.4011299E-2,1E0,6.8421054E-1,5.819209E-1,5.922535E-1,9.5985913E-1,4.3239436E-1,8.947368E-1,1.2830053E-1,-6.522619E-2,-3.4679897E-2,1.4560153E-1,-2.4150058E-3,-2.0826827E-1,1.8097179E-1,6.9679804E-2,1.3454951E-1,-2.3932481E-1,-1.167226E-4,9.271593E-2,-1.24751605E-1,-9.217312E-3,-8.517008E-2,2.0236544E-1,1.0279337E-1,1.3806755E-2,-9.677668E-2,4.5864027E-2,-1.04632474E-1,-2.123837E-1,-2.0413605E-2,6.0077675E-2,-8.336561E-2,-1.609613E-1,-8.2881756E-2,1.8954845E-1,-1.754051E-1,4.0123653E-2,-1.3157031E-1,2.1232112E-1,-1.8069796E-1,4.4370737E-2],"split_indices":[4,4,5,2,1,0,2,0,3,2,3,2,3,2,2,0,0,2,3,3,0,3,2,2,3,3,4,4,3,0,0,0,2,0,0,2,5,4,3,2,3,2,2,2,0,3,2,4,4,4,3,0,0,0,0,0,0,0,0,0,0,0,0,0,0,0,0,0,0,0,0,0,0,0,0,0,0,0,0,0,0,0,0,0,0],"split_type":[0,0,0,0,0,0,0,0,0,0,0,0,0,0,0,0,0,0,0,0,0,0,0,0,0,0,0,0,0,0,0,0,0,0,0,0,0,0,0,0,0,0,0,0,0,0,0,0,0,0,0,0,0,0,0,0,0,0,0,0,0,0,0,0,0,0,0,0,0,0,0,0,0,0,0,0,0,0,0,0,0,0,0,0,0],"sum_hessian":[6.1256895E3,2.746034E2,5.851086E3,2.5803604E2,1.6567368E1,2.18394E3,3.667146E3,2.5346713E2,4.5689006E0,1.2106528E1,4.4608397E0,2.1873883E2,1.965201E3,3.3851064E3,2.8203955E2,2.8890002E0,1.6799004E0,2.2978282E0,9.8087E0,3.0809717E0,1.3798678E0,4.7510815E1,1.7122801E2,1.655449E3,3.097521E2,1.4241406E2,3.2426924E3,2.2684277E2,5.519678E1,1.1739602E0,1.123868E0,5.4656177E0,4.3430824E0,1.1335187E0,1.9474531E0,3.5771633E1,1.17391815E1,1.6565024E2,5.5777745E0,1.1914011E3,4.6404788E2,6.1684853E1,2.4806725E2,6.606186E1,7.6352196E1,2.9388108E3,3.0388156E2,1.8774666E2,3.9096123E1,3.0801876E0,5.2116596E1,3.321714E0,1.0213686E0,1.2719229E1,2.3052402E1,3.9089234E0,7.8302584E0,1.5462508E2,1.1025163E1,2.1546686E0,3.4231062E0,8.881972E2,3.0320392E2,1.18726135E2,3.4532175E2,4.400002E0,5.728485E1,1.24931984E2,1.2313527E2,5.29314E1,1.3130459E1,1.8967224E1,5.738497E1,2.5981042E3,3.4070657E2,2.7027048E2,3.3611103E1,1.8638132E2,1.3653288E0,3.7377613E1,1.7185113E0,1.9784496E0,1.101738E0,5.0957066E1,1.1595305E0],"tree_param":{"num_deleted":"0","num_feature":"6","num_nodes":"85","size_leaf_vector":"1"}},{"base_weights":[7.106147E-3,9.937508E-1,-3.0047838E-2,1.0013282E0,4.929452E-1,6.3514985E-2,-2.1190299E-1,5.666866E-1,2.0186578E-1,1.5349664E-1,-9.64774E-3,1.5429908E-1,-1.3350254E-1,-5.66579E-1,-1.7656714E-1,1.5717617E-1,2.9373655E-2,5.6598276E-1,9.8568976E-2,1.2204881E-1,-2.246468E-1,1.0275792E0,-5.986602E-1,9.585276E-1,-1.9016197E-1,7.933753E-1,2.556155E-1,1.268407E-1,-3.9949492E-1,-5.099274E-1,1.7701879E-1,-1.15172826E-1,-4.097607E-1,7.731088E-2,2.5059643E-1,4.960119E-1,-6.3491046E-1,1.1110672E0,3.9935026E-1,4.733803E-1,-2.1274392E-1,4.34368E-3,1.8304963E-1,-1.06789134E-1,8.0760755E-2,-1.0441382E-3,6.0187038E-2,6.315485E-2,-1.1041911E-1,-1.2241643E-1,4.720162E-2,5.8826942E-2,-1.7349053E-2,-4.8131358E-2,9.88301E-2,-1.909351E-1,-5.6275047E-2,1.6872254E-1,-4.5519482E-2,-1.7159304E-1,-9.709581E-2,6.7591645E-2,2.3069768E-1,-9.917473E-2,1.469134E-1,2.620754E-1,6.356578E-3,-8.188973E-2,-2.0789115E-2],"categories":[],"categories_nodes":[],"categories_segments":[],"categories_sizes":[],"default_left":[0,0,0,0,0,0,0,0,0,0,0,0,0,0,0,0,0,0,0,0,0,0,0,0,0,0,0,0,0,0,0,0,0,0,0,0,0,0,0,0,0,0,0,0,0,0,0,0,0,0,0,0,0,0,0,0,0,0,0,0,0,0,0,0,0,0,0,0,0],"id":10,"left_children":[1,3,5,7,9,11,13,15,-1,-1,-1,17,19,21,23,-1,-1,25,27,29,31,33,35,37,39,41,43,45,47,49,51,53,55,-1,-1,57,59,61,63,65,67,-1,-1,-1,-1,-1,-1,-1,-1,-1,-1,-1,-1,-1,-1,-1,-1,-1,-1,-1,-1,-1,-1,-1,-1,-1,-1,-1,-1],"loss_changes":[2.1976941E2,3.32016E-1,9.832175E1,1.699524E-1,8.114604E-1,6.826968E1,2.4501984E1,4.4927645E-1,0E0,0E0,0E0,5.9885265E1,2.8075274E1,9.687862E0,2.7752277E1,0E0,0E0,2.1766556E1,3.2469604E1,1.11104145E1,1.7947483E1,7.4500084E-2,7.2407417E0,1.3739929E0,2.6567139E1,1.6831413E1,1.5789364E1,5.010829E1,1.369887E1,2.0983915E0,9.063545E0,4.2888565E1,2.2789276E1,0E0,0E0,1.7403617E0,5.229042E0,1.4086914E-1,2.2033663E0,2.1559877E1,3.6529007E1,0E0,0E0,0E0,0E0,0E0,0E0,0E0,0E0,0E0,0E0,0E0,0E0,0E0,0E0,0E0,0E0,0E0,0E0,0E0,0E0,0E0,0E0,0E0,0E0,0E0,0E0,0E0,0E0],"parents":[2147483647,0,0,1,1,2,2,3,3,4,4,5,5,6,6,7,7,11,11,12,12,13,13,14,14,17,17,18,18,19,19,20,20,21,21,22,22,23,23,24,24,25,25,26,26,27,27,28,28,29,29,30,30,31,31,32,32,35,35,36,36,37,37,38,38,39,39,40,40],"right_children":[2,4,6,8,10,12,14,16,-1,-1,-1,18,20,22,24,-1,-1,26,28,30,32,34,36,38,40,42,44,46,48,50,52,54,56,-1,-1,58,60,62,64,66,68,-1,-1,-1,-1,-1,-1,-1,-1,-1,-1,-1,-1,-1,-1,-1,-1,-1,-1,-1,-1,-1,-1,-1,-1,-1,-1,-1,-1],"split_conditions":[1.4084507E-3,9.1101694E-1,1E0,1.6949153E-2,2.8947368E-1,3.1578946E-1,5.3672317E-2,8.474576E-3,2.0186578E-1,1.5349664E-1,-9.64774E-3,1E0,3.0633804E-1,5.6497175E-3,1.8421052E-1,1.5717617E-1,2.9373655E-2,6.315789E-1,8.079096E-1,4.661017E-2,3.3474576E-1,5.263158E-2,2.631579E-2,3.0701753E-1,7.768361E-2,2.259887E-2,8.050848E-2,2.7683616E-1,5E-1,6.22807E-1,3.9548022E-1,2.8107345E-1,3.4210527E-1,7.731088E-2,2.5059643E-1,1.5704225E-1,2.4011299E-2,5.6338026E-3,3.4210527E-1,3.9473686E-1,4.2105263E-1,4.34368E-3,1.8304963E-1,-1.06789134E-1,8.0760755E-2,-1.0441382E-3,6.0187038E-2,6.315485E-2,-1.1041911E-1,-1.2241643E-1,4.720162E-2,5.8826942E-2,-1.7349053E-2,-4.8131358E-2,9.88301E-2,-1.909351E-1,-5.6275047E-2,1.6872254E-1,-4.5519482E-2,-1.7159304E-1,-9.709581E-2,6.7591645E-2,2.3069768E-1,-9.917473E-2,1.469134E-1,2.620754E-1,6.356578E-3,-8.188973E-2,-2.0789115E-2],"split_indices":[4,2,1,2,3,5,2,2,0,0,0,0,4,2,3,0,0,3,2,2,2,3,3,5,2,2,2,2,3,5,2,2,3,0,0,4,2,4,5,3,3,0,0,0,0,0,0,0,0,0,0,0,0,0,0,0,0,0,0,0,0,0,0,0,0,0,0,0,0],"split_type":[0,0,0,0,0,0,0,0,0,0,0,0,0,0,0,0,0,0,0,0,0,0,0,0,0,0,0,0,0,0,0,0,0,0,0,0,0,0,0,0,0,0,0,0,0,0,0,0,0,0,0,0,0,0,0,0,0,0,0,0,0,0,0,0,0,0,0,0,0],"sum_hessian":[5.9933496E3,2.1656624E2,5.776783E3,2.1235382E2,4.212418E0,3.8147698E3,1.9620137E3,5.1365643E0,2.0721725E2,2.5172713E0,1.6951466E0,2.611588E3,1.2031819E3,1.7640024E2,1.7856134E3,2.801762E0,2.334802E0,3.1028998E2,2.3012979E3,3.1622037E2,8.869615E2,2.8677394E0,1.735325E2,2.0310272E1,1.7653031E3,1.7818518E2,1.321048E2,2.1783906E3,1.2290717E2,2.4641916E1,2.9157846E2,5.5837054E2,3.2859094E2,1.4523478E0,1.4153917E0,5.155828E0,1.6837668E2,1.5181813E1,5.1284585E0,5.7443222E1,1.7078599E3,2.4464235E1,1.5372095E2,2.0464554E1,1.1164024E2,1.239286E3,9.391047E2,2.1423183E1,1.01483986E2,2.1831562E1,2.810355E0,2.0184192E2,8.973653E1,4.6351865E2,9.485193E1,6.142879E1,2.6716217E2,3.370769E0,1.7850589E0,6.564601E1,1.0273067E2,1.2561264E0,1.3925687E1,1.2666099E0,3.8618488E0,1.9160107E1,3.8283115E1,6.0723346E2,1.1006265E3],"tree_param":{"num_deleted":"0","num_feature":"6","num_nodes":"69","size_leaf_vector":"1"}},{"base_weights":[6.5846224E-3,9.679551E-1,-2.4343038E-2,9.766703E-1,4.5302495E-1,1.442665E-1,-9.965016E-2,1.9630727E-1,6.2304E-2,1.4605866E-1,-8.38785E-3,5.686192E-1,1.02522366E-1,-3.0584466E-2,-2.3156558E-1,1.2560071E-1,7.150766E-1,1.326399E-1,-3.8406157E-1,-1.3174535E-1,2.6789054E-1,-7.0309496E-1,-1.3101251E-1,3.8288704E-1,-4.370013E-1,8.0131745E-1,-1.8522568E-1,-1.3146045E-2,2.5788662E-1,-2.0988429E-1,-7.145004E-1,1.660425E-1,-1.941831E-1,1.1573758E0,-1.24203125E-2,-1.0837946E0,-2.401227E-1,1.3433387E0,-1.7637363E-1,5.3845383E-3,1.7041905E-1,7.512215E-2,-1.5799604E-1,1.6827123E-1,-2.017693E-1,1.4894123E-1,-1.6135116E-1,5.9079595E-2,-4.012137E-2,1.6964797E-3,7.271523E-2,-1.5509568E-1,7.7915527E-3,-5.2313667E-2,-1.8200043E-1,-3.3902075E-2,6.797339E-2,-8.430267E-2,-1.4162687E-2,5.8651876E-2,2.6255354E-1,-5.1839888E-2,4.6125636E-2,-2.5087574E-1,-3.7269484E-2,3.9433535E-2,-9.275197E-2,3.3770648E-1,-4.816779E-2,-4.5997806E-2,2.5015427E-2],"categories":[],"categories_nodes":[],"categories_segments":[],"categories_sizes":[],"default_left":[0,0,0,0,0,0,0,0,0,0,0,0,0,0,0,0,0,0,0,0,0,0,0,0,0,0,0,0,0,0,0,0,0,0,0,0,0,0,0,0,0,0,0,0,0,0,0,0,0,0,0,0,0,0,0,0,0,0,0,0,0,0,0,0,0,0,0,0,0,0,0],"id":11,"left_children":[1,3,5,7,9,11,13,-1,-1,-1,-1,15,17,19,21,23,25,27,29,31,33,35,37,39,41,43,45,47,49,51,53,55,57,59,61,63,65,67,69,-1,-1,-1,-1,-1,-1,-1,-1,-1,-1,-1,-1,-1,-1,-1,-1,-1,-1,-1,-1,-1,-1,-1,-1,-1,-1,-1,-1,-1,-1,-1,-1],"loss_changes":[1.7450479E2,3.7846375E-1,7.221685E1,2.7363586E-1,7.0441496E-1,3.1048264E1,3.581063E1,0E0,0E0,0E0,0E0,1.0100185E1,2.3498034E1,7.7981445E1,6.395539E1,5.9910393E0,9.296162E0,2.7528303E1,5.232337E0,3.5893276E1,1.6302652E2,4.1547173E1,7.478084E1,4.677142E0,4.0520744E0,8.654991E0,7.023072E0,4.0406044E1,2.1371586E1,8.848235E0,2.5833855E0,1.9588081E1,4.4699455E1,2.0652863E1,2.993662E1,1.964978E1,1.0684457E1,1.866364E1,1.752029E1,0E0,0E0,0E0,0E0,0E0,0E0,0E0,0E0,0E0,0E0,0E0,0E0,0E0,0E0,0E0,0E0,0E0,0E0,0E0,0E0,0E0,0E0,0E0,0E0,0E0,0E0,0E0,0E0,0E0,0E0,0E0,0E0],"parents":[2147483647,0,0,1,1,2,2,3,3,4,4,5,5,6,6,11,11,12,12,13,13,14,14,15,15,16,16,17,17,18,18,19,19,20,20,21,21,22,22,23,23,24,24,25,25,26,26,27,27,28,28,29,29,30,30,31,31,32,32,33,33,34,34,35,35,36,36,37,37,38,38],"right_children":[2,4,6,8,10,12,14,-1,-1,-1,-1,16,18,20,22,24,26,28,30,32,34,36,38,40,42,44,46,48,50,52,54,56,58,60,62,64,66,68,70,-1,-1,-1,-1,-1,-1,-1,-1,-1,-1,-1,-1,-1,-1,-1,-1,-1,-1,-1,-1,-1,-1,-1,-1,-1,-1,-1,-1,-1,-1,-1,-1],"split_conditions":[1.4084507E-3,9.1101694E-1,1.3157895E-1,8.684211E-1,2.8947368E-1,1E0,3.8841808E-1,1.9630727E-1,6.2304E-2,1.4605866E-1,-8.38785E-3,9.180791E-2,8.1920904E-1,2.7824858E-1,3.4210527E-1,5.7894737E-1,7.6129943E-1,4.2105263E-1,9.223164E-1,3.4210527E-1,2.881356E-1,4.562147E-1,3.9473686E-1,2.1186441E-2,7.957747E-2,2.5422534E-1,6.052632E-1,3.1578946E-1,1.7655367E-1,8.502825E-1,4.5774646E-2,2.3684211E-1,4.2105263E-1,2.8107345E-1,5E-1,1E0,1E0,8.079096E-1,6.8421054E-1,5.3845383E-3,1.7041905E-1,7.512215E-2,-1.5799604E-1,1.6827123E-1,-2.017693E-1,1.4894123E-1,-1.6135116E-1,5.9079595E-2,-4.012137E-2,1.6964797E-3,7.271523E-2,-1.5509568E-1,7.7915527E-3,-5.2313667E-2,-1.8200043E-1,-3.3902075E-2,6.797339E-2,-8.430267E-2,-1.4162687E-2,5.8651876E-2,2.6255354E-1,-5.1839888E-2,4.6125636E-2,-2.5087574E-1,-3.7269484E-2,3.9433535E-2,-9.275197E-2,3.3770648E-1,-4.816779E-2,-4.5997806E-2,2.5015427E-2],"split_indices":[4,2,5,3,3,0,2,0,0,0,0,2,2,2,3,3,2,3,2,3,2,2,3,2,4,4,3,3,2,2,4,3,3,2,3,1,1,2,3,0,0,0,0,0,0,0,0,0,0,0,0,0,0,0,0,0,0,0,0,0,0,0,0,0,0,0,0,0,0,0,0],"split_type":[0,0,0,0,0,0,0,0,0,0,0,0,0,0,0,0,0,0,0,0,0,0,0,0,0,0,0,0,0,0,0,0,0,0,0,0,0,0,0,0,0,0,0,0,0,0,0,0,0,0,0,0,0,0,0,0,0,0,0,0,0,0,0,0,0,0,0,0,0,0,0],"sum_hessian":[5.86728E3,1.8192537E2,5.685354E3,1.7801573E2,3.909627E0,1.7550203E3,3.930334E3,1.7625069E2,1.765045E0,2.2011454E0,1.7084814E0,1.560511E2,1.5989692E3,2.580512E3,1.349822E3,3.9232986E1,1.16818115E2,1.5064534E3,9.2515854E1,1.9277174E3,6.5279456E2,2.3620056E2,1.1136215E3,2.7140612E1,1.2092373E1,1.0670654E2,1.0111576E1,6.965597E2,8.098936E2,6.165311E1,3.0862741E1,3.338428E2,1.5938745E3,1.5567528E2,4.9711923E2,1.2888124E2,1.0731931E2,3.2385822E1,1.0812356E3,1.6033894E1,1.1106719E1,3.6425476E0,8.449825E0,1.0492102E2,1.7855232E0,3.9713979E0,6.1401777E0,2.630412E2,4.3351852E2,2.4137694E2,5.685167E2,1.8190805E1,4.3462303E1,1.0009947E1,2.0852795E1,1.13931946E2,2.1991086E2,5.598451E2,1.0340294E3,2.4167845E1,1.3150743E2,2.4663356E2,2.5048567E2,1.0796237E2,2.091888E1,3.6353535E1,7.0965775E1,2.6537422E1,5.8483996E0,9.1816907E2,1.6306656E2],"tree_param":{"num_deleted":"0","num_feature":"6","num_nodes":"71","size_leaf_vector":"1"}},{"base_weights":[5.7385447E-3,9.419633E-1,-1.9981774E-2,9.473535E-1,4.117352E-2,5.6210183E-2,-1.6826384E-1,4.3484533E-1,1.9161753E-1,1.2581448E-1,-1.1536774E-1,-4.8313278E-1,-1.3812743E-1,1.4052314E-1,1.2941797E-3,-5.84036E-4,5.1873785E-1,-7.4838746E-1,2.1898206E-2,8.906693E-1,-5.122368E-1,8.362429E-1,-1.4933243E-1,3.2618794E-1,-8.5282624E-2,1.109918E0,2.7098817E-1,-1.2006243E0,3.4567502E-1,1.0970343E0,-1.6832031E-1,6.576585E-2,2.1744561E-1,4.2203122E-1,-5.441915E-1,1.0825961E0,4.993717E-1,3.84161E-1,-1.6849817E-1,1.1027767E-3,1.1695699E-1,-8.368217E-2,1.8464707E-2,6.362416E-2,2.43607E-1,9.735965E-2,-2.4457378E-2,2.4217394E-1,-2.4954097E-1,1.9840859E-1,-1.1897071E-1,2.9195508E-1,1.4935651E-1,-6.32131E-2,1.1971756E-2,-5.6472566E-2,1.5142095E-1,-1.5564917E-1,-7.8591555E-2,2.3115663E-1,6.919432E-2,-1.1977687E-1,1.3959348E-1,1.8075542E-1,-1.3795696E-2,-6.452262E-2,-1.7348072E-2],"categories":[],"categories_nodes":[],"categories_segments":[],"categories_sizes":[],"default_left":[0,0,0,0,0,0,0,0,0,0,0,0,0,0,0,0,0,0,0,0,0,0,0,0,0,0,0,0,0,0,0,0,0,0,0,0,0,0,0,0,0,0,0,0,0,0,0,0,0,0,0,0,0,0,0,0,0,0,0,0,0,0,0,0,0,0,0],"id":12,"left_children":[1,3,5,7,-1,9,11,13,-1,15,17,19,21,-1,-1,23,25,27,29,31,33,35,37,39,41,43,45,47,49,51,53,-1,-1,55,57,59,61,63,65,-1,-1,-1,-1,-1,-1,-1,-1,-1,-1,-1,-1,-1,-1,-1,-1,-1,-1,-1,-1,-1,-1,-1,-1,-1,-1,-1,-1],"loss_changes":[1.3859361E2,4.1557312E-1,6.3298916E1,4.223175E-1,0E0,4.4216476E1,1.7978203E1,5.6433135E-1,0E0,1.3079466E2,9.287602E1,7.0818787E0,1.908863E1,0E0,0E0,5.5203667E1,9.358031E1,9.465406E1,1.7999254E2,6.245756E-2,5.093174E0,1.1107807E0,1.7631481E1,3.404324E1,9.3756165E1,1.57895355E1,3.850788E1,1.6836441E1,3.4926815E1,1.5719055E1,2.5232615E1,0E0,0E0,1.6183292E0,5.285385E0,1.7360973E-1,2.6561294E0,1.4162893E1,2.08777E1,0E0,0E0,0E0,0E0,0E0,0E0,0E0,0E0,0E0,0E0,0E0,0E0,0E0,0E0,0E0,0E0,0E0,0E0,0E0,0E0,0E0,0E0,0E0,0E0,0E0,0E0,0E0,0E0],"parents":[2147483647,0,0,1,1,2,2,3,3,5,5,6,6,7,7,9,9,10,10,11,11,12,12,15,15,16,16,17,17,18,18,19,19,20,20,21,21,22,22,23,23,24,24,25,25,26,26,27,27,28,28,29,29,30,30,33,33,34,34,35,35,36,36,37,37,38,38],"right_children":[2,4,6,8,-1,10,12,14,-1,16,18,20,22,-1,-1,24,26,28,30,32,34,36,38,40,42,44,46,48,50,52,54,-1,-1,56,58,60,62,64,66,-1,-1,-1,-1,-1,-1,-1,-1,-1,-1,-1,-1,-1,-1,-1,-1,-1,-1,-1,-1,-1,-1,-1,-1,-1,-1,-1,-1],"split_conditions":[1.4084507E-3,9.6468925E-1,1E0,1.6949153E-2,4.117352E-2,3.997175E-1,5.3672317E-2,8.474576E-3,1.9161753E-1,2.7824858E-1,3.4210527E-1,5.6497175E-3,1.8421052E-1,1.4052314E-1,1.2941797E-3,3.4210527E-1,2.881356E-1,4.562147E-1,5E-1,5.263158E-2,2.631579E-2,2.9237288E-1,7.768361E-2,2.3684211E-1,3.9473686E-1,2.8107345E-1,2.7887323E-1,2.1052632E-1,6.751412E-1,5.706215E-1,6.052632E-1,6.576585E-2,2.1744561E-1,7.8947365E-2,2.4011299E-2,4.2394367E-1,3.1497175E-1,4.2105263E-1,4.2105263E-1,1.1027767E-3,1.1695699E-1,-8.368217E-2,1.8464707E-2,6.362416E-2,2.43607E-1,9.735965E-2,-2.4457378E-2,2.4217394E-1,-2.4954097E-1,1.9840859E-1,-1.1897071E-1,2.9195508E-1,1.4935651E-1,-6.32131E-2,1.1971756E-2,-5.6472566E-2,1.5142095E-1,-1.5564917E-1,-7.8591555E-2,2.3115663E-1,6.919432E-2,-1.1977687E-1,1.3959348E-1,1.8075542E-1,-1.3795696E-2,-6.452262E-2,-1.7348072E-2],"split_indices":[4,2,1,2,0,2,2,2,0,2,3,2,3,0,0,3,2,2,3,3,3,2,2,3,3,2,4,3,2,2,3,0,0,5,2,4,2,3,3,0,0,0,0,0,0,0,0,0,0,0,0,0,0,0,0,0,0,0,0,0,0,0,0,0,0,0,0],"split_type":[0,0,0,0,0,0,0,0,0,0,0,0,0,0,0,0,0,0,0,0,0,0,0,0,0,0,0,0,0,0,0,0,0,0,0,0,0,0,0,0,0,0,0,0,0,0,0,0,0,0,0,0,0,0,0,0,0,0,0,0,0,0,0,0,0,0,0],"sum_hessian":[5.753768E3,1.5289075E2,5.6008774E3,1.5149442E2,1.396336E0,3.7002131E3,1.9006641E3,3.959445E0,1.4753496E2,2.6325352E3,1.0676781E3,1.6471109E2,1.735953E3,2.0425115E0,1.9169337E0,1.992554E3,6.399811E2,1.894683E2,8.782098E2,2.8028846E0,1.619082E2,1.8898943E1,1.7170541E3,4.0956763E2,1.5829863E3,1.8796915E2,4.5201193E2,1.3398674E2,5.548157E1,1.3130307E2,7.469067E2,1.4192E0,1.3836845E0,4.950886E0,1.5695732E2,9.63743E0,9.261513E0,5.8885487E1,1.6581686E3,1.8329428E2,2.2627335E2,5.500067E2,1.0329796E3,2.305651E1,1.6491264E2,2.9170224E2,1.603097E2,2.0924246E0,1.3189432E2,3.2850594E1,2.263098E1,6.2945393E1,6.835767E1,4.5312482E2,2.937819E2,1.6466328E0,3.3042529E0,5.998169E1,9.697563E1,8.248843E0,1.3885877E0,1.1096163E0,8.151896E0,2.6967413E1,3.1918076E1,5.737305E2,1.0844381E3],"tree_param":{"num_deleted":"0","num_feature":"6","num_nodes":"67","size_leaf_vector":"1"}},{"base_weights":[5.3248266E-3,9.148989E-1,-1.6114188E-2,9.2676747E-1,3.4780174E-1,4.807467E-2,-1.6061065E-1,4.00134E-1,1.8788469E-1,1.332114E-1,-2.7441505E-2,4.3099198E-1,1.7716832E-2,-1.17133684E-1,-3.6700734E-1,1.3366309E-1,1.1251426E-3,5.957049E-1,2.5415156E-2,-4.2570978E-1,4.234125E-2,-1.6069703E-1,1.5626906E-1,-3.1143147E-1,-6.1558574E-1,-8.44176E-2,7.019787E-1,-8.0297345E-1,2.5128028E-1,1.1782721E0,-5.2297515E-1,6.878418E-1,2.3001352E-2,-7.538575E-2,-2.6232105E-1,-5.476698E-1,2.5514948E-1,-3.6905485E-1,1.310646E-1,-6.9099575E-1,2.3179407E-1,1.2443402E-1,-5.8322698E-2,1.5503395E-1,1.6840532E-2,1.8392141E-1,-2.2495666E-1,-1.2233384E-1,1.04975335E-1,2.658578E-1,-4.98807E-3,-4.086396E-2,-1.4974129E-1,1.606134E-1,-1.9274335E-2,1.9392554E-2,-2.203075E-2,-3.01555E-2,1.5226789E-1,-1.7525731E-1,-4.8171367E-2,-1.337543E-1,8.426447E-2,1.3614559E-1,2.3018984E-2,-8.7134264E-2,-2.1919854E-2,9.885695E-2,-3.7643805E-2,-6.469547E-2,-1.630668E-1,-6.399452E-2,1.3697621E-1],"categories":[],"categories_nodes":[],"categories_segments":[],"categories_sizes":[],"default_left":[0,0,0,0,0,0,0,0,0,0,0,0,0,0,0,0,0,0,0,0,0,0,0,0,0,0,0,0,0,0,0,0,0,0,0,0,0,0,0,0,0,0,0,0,0,0,0,0,0,0,0,0,0,0,0,0,0,0,0,0,0,0,0,0,0,0,0,0,0,0,0,0,0],"id":13,"left_children":[1,3,5,7,9,11,13,15,-1,-1,-1,17,19,21,23,-1,-1,25,27,29,31,33,35,37,39,41,43,45,47,49,51,53,55,57,59,61,63,65,67,69,71,-1,-1,-1,-1,-1,-1,-1,-1,-1,-1,-1,-1,-1,-1,-1,-1,-1,-1,-1,-1,-1,-1,-1,-1,-1,-1,-1,-1,-1,-1,-1,-1],"loss_changes":[1.0987401E2,5.509567E-1,5.1066505E1,4.6715546E-1,7.4902666E-1,4.4310593E1,1.5153465E1,4.9459505E-1,0E0,0E0,0E0,1.8690498E1,3.8600338E1,1.6703062E1,3.872509E0,0E0,0E0,1.4449402E1,1.5528891E1,2.9632519E1,4.1786255E1,1.04560585E1,1.3570936E1,6.2306137E0,3.5297432E0,4.2511E0,7.72509E0,1.0895306E1,1.5698016E1,2.0211658E0,1.251017E1,8.875954E0,3.20385E1,4.164119E1,7.0507126E0,3.1079583E0,1.0047025E1,3.6645927E0,3.4183462E0,1.9604568E0,1.4836308E0,0E0,0E0,0E0,0E0,0E0,0E0,0E0,0E0,0E0,0E0,0E0,0E0,0E0,0E0,0E0,0E0,0E0,0E0,0E0,0E0,0E0,0E0,0E0,0E0,0E0,0E0,0E0,0E0,0E0,0E0,0E0,0E0],"parents":[2147483647,0,0,1,1,2,2,3,3,4,4,5,5,6,6,7,7,11,11,12,12,13,13,14,14,17,17,18,18,19,19,20,20,21,21,22,22,23,23,24,24,25,25,26,26,27,27,28,28,29,29,30,30,31,31,32,32,33,33,34,34,35,35,36,36,37,37,38,38,39,39,40,40],"right_children":[2,4,6,8,10,12,14,16,-1,-1,-1,18,20,22,24,-1,-1,26,28,30,32,34,36,38,40,42,44,46,48,50,52,54,56,58,60,62,64,66,68,70,72,-1,-1,-1,-1,-1,-1,-1,-1,-1,-1,-1,-1,-1,-1,-1,-1,-1,-1,-1,-1,-1,-1,-1,-1,-1,-1,-1,-1,-1,-1,-1,-1],"split_conditions":[1.4084507E-3,9.1101694E-1,3.5E-1,1.6949153E-2,2.8947368E-1,1E0,7.056338E-1,8.474576E-3,1.8788469E-1,1.332114E-1,-2.7441505E-2,6.5789473E-1,2.8248588E-2,6.8421054E-1,5.819209E-1,1.3366309E-1,1.1251426E-3,2.259887E-2,6.8421054E-1,5.6497175E-3,2.1052632E-1,2.9519773E-1,7.768361E-2,4.7175142E-1,9.5985913E-1,1.971831E-2,7.259887E-1,7.768361E-2,7.4858755E-2,9.084507E-2,2.631579E-1,2.6408452E-1,3.7429377E-1,2.8107345E-1,3.556338E-1,7.5438595E-1,7.368421E-1,7.894737E-1,5.5263156E-1,4.7368422E-1,5E-1,1.2443402E-1,-5.8322698E-2,1.5503395E-1,1.6840532E-2,1.8392141E-1,-2.2495666E-1,-1.2233384E-1,1.04975335E-1,2.658578E-1,-4.98807E-3,-4.086396E-2,-1.4974129E-1,1.606134E-1,-1.9274335E-2,1.9392554E-2,-2.203075E-2,-3.01555E-2,1.5226789E-1,-1.7525731E-1,-4.8171367E-2,-1.337543E-1,8.426447E-2,1.3614559E-1,2.3018984E-2,-8.7134264E-2,-2.1919854E-2,9.885695E-2,-3.7643805E-2,-6.469547E-2,-1.630668E-1,-6.399452E-2,1.3697621E-1],"split_indices":[4,2,4,2,3,0,4,2,0,0,0,3,2,3,2,0,0,2,3,2,3,2,2,2,4,4,2,2,2,4,3,4,2,2,4,5,3,5,3,3,3,0,0,0,0,0,0,0,0,0,0,0,0,0,0,0,0,0,0,0,0,0,0,0,0,0,0,0,0,0,0,0,0],"split_type":[0,0,0,0,0,0,0,0,0,0,0,0,0,0,0,0,0,0,0,0,0,0,0,0,0,0,0,0,0,0,0,0,0,0,0,0,0,0,0,0,0,0,0,0,0,0,0,0,0,0,0,0,0,0,0,0,0,0,0,0,0,0,0,0,0,0,0,0,0,0,0,0,0],"sum_hessian":[5.6327007E3,1.2874803E2,5.5039526E3,1.2548752E2,3.260511E0,3.8114714E3,1.6924814E3,3.710357E0,1.2177716E2,1.7432989E0,1.517212E0,2.790088E2,3.5324626E3,1.3992915E3,2.9318988E2,1.7956512E0,1.9147059E0,1.9809117E2,8.09176E1,1.8498785E2,3.3474749E3,1.2073306E3,1.9196095E2,2.4145863E2,5.173123E1,2.6797878E1,1.7129329E2,1.6788517E1,6.412909E1,9.940882E0,1.7504697E2,9.637099E1,3.2511038E3,6.572906E2,5.5004004E2,2.3084139E1,1.6887682E2,2.1378479E2,2.7673845E1,4.7673244E1,4.057986E0,5.622158E0,2.117572E1,1.5292117E2,1.8372122E1,2.350291E0,1.4438226E1,1.5140096E1,4.898899E1,8.739227E0,1.2016544E0,7.337366E1,1.0167331E2,8.4004135E1,1.2366847E1,2.0903076E3,1.1607961E3,6.0371375E2,5.357684E1,1.7234587E1,5.328054E2,2.0795065E1,2.2890747E0,4.085917E1,1.2801765E2,1.6956818E2,4.4216614E1,1.2689754E1,1.4984092E1,1.2961958E1,3.471129E1,1.9622109E0,2.095775E0],"tree_param":{"num_deleted":"0","num_feature":"6","num_nodes":"73","size_leaf_vector":"1"}},{"base_weights":[4.9022716E-3,8.8650924E-1,-1.2871328E-2,9.000003E-1,3.18685E-1,9.826078E-3,-3.1735575E-1,9.079417E-1,2.1550482E-2,1.2648076E-1,-2.3764659E-2,-3.7354004E-1,2.8981458E-2,-2.4594583E-1,-6.332917E-1,7.680897E-2,1.8298481E-1,1.0834113E0,-4.4920367E-1,3.8479927E-1,4.6295933E-3,-6.261634E-2,-3.7218446E-1,1.4808124E-1,-7.037413E-1,2.5474447E-1,-7.892409E-2,4.774817E-1,-5.216519E-1,7.071264E-1,1.5084305E-1,8.096176E-1,-5.818575E-3,-3.2866085E-1,1.9664657E-1,-7.433125E-1,-2.4947155E-1,-6.308236E-2,4.2666054E-1,-9.763828E-1,-5.23336E-1,-7.629626E-2,2.1976553E-1,3.352801E-2,-1.1196037E-1,-9.483709E-3,1.490687E-1,1.43622E-2,1.7301841E-1,-5.4435857E-2,2.4582787E-1,1.4239368E-2,-1.792369E-2,2.2002962E-1,-7.865017E-2,1.4856254E-1,1.3323746E-2,-1.8994384E-1,-9.243131E-2,-3.5735495E-2,-1.4020582E-1,2.0510133E-1,-5.4713983E-2,-2.2431877E-1,-1.3325638E-1,1.1702963E-1,-1.2015145E-1],"categories":[],"categories_nodes":[],"categories_segments":[],"categories_sizes":[],"default_left":[0,0,0,0,0,0,0,0,0,0,0,0,0,0,0,0,0,0,0,0,0,0,0,0,0,0,0,0,0,0,0,0,0,0,0,0,0,0,0,0,0,0,0,0,0,0,0,0,0,0,0,0,0,0,0,0,0,0,0,0,0,0,0,0,0,0,0],"id":14,"left_children":[1,3,5,7,9,11,13,15,-1,-1,-1,17,19,21,23,-1,-1,25,27,29,31,33,35,37,39,-1,-1,41,43,45,47,49,51,53,55,57,59,-1,61,63,65,-1,-1,-1,-1,-1,-1,-1,-1,-1,-1,-1,-1,-1,-1,-1,-1,-1,-1,-1,-1,-1,-1,-1,-1,-1,-1],"loss_changes":[8.7037476E1,5.540848E-1,3.7634518E1,5.733261E-1,6.373038E-1,3.7230507E1,8.367161E0,3.4477234E-2,0E0,0E0,0E0,2.708361E1,4.1832874E1,7.1456165E0,3.90304E0,0E0,0E0,3.9355154E0,1.5694801E1,2.321423E1,3.8019566E1,8.8604E0,8.159828E0,9.781903E-1,2.6111774E0,0E0,0E0,9.601326E0,5.717575E0,3.7780838E0,1.0124672E1,2.6620731E1,2.8809586E1,6.2754316E0,4.5814424E0,2.1741753E0,4.3250904E0,0E0,2.1700022E0,3.388939E-1,3.814807E0,0E0,0E0,0E0,0E0,0E0,0E0,0E0,0E0,0E0,0E0,0E0,0E0,0E0,0E0,0E0,0E0,0E0,0E0,0E0,0E0,0E0,0E0,0E0,0E0,0E0,0E0],"parents":[2147483647,0,0,1,1,2,2,3,3,4,4,5,5,6,6,7,7,11,11,12,12,13,13,14,14,17,17,18,18,19,19,20,20,21,21,22,22,23,23,24,24,27,27,28,28,29,29,30,30,31,31,32,32,33,33,34,34,35,35,36,36,38,38,39,39,40,40],"right_children":[2,4,6,8,10,12,14,16,-1,-1,-1,18,20,22,24,-1,-1,26,28,30,32,34,36,38,40,-1,-1,42,44,46,48,50,52,54,56,58,60,-1,62,64,66,-1,-1,-1,-1,-1,-1,-1,-1,-1,-1,-1,-1,-1,-1,-1,-1,-1,-1,-1,-1,-1,-1,-1,-1,-1,-1],"split_conditions":[1.4084507E-3,9.1101694E-1,8.079096E-1,8.684211E-1,2.8947368E-1,2.6836159E-2,9.6468925E-1,9.887005E-3,2.1550482E-2,1.2648076E-1,-2.3764659E-2,5.6497175E-3,1E0,5.5263156E-1,4.385965E-2,7.680897E-2,1.8298481E-1,2.2323944E-1,2.631579E-2,6.315789E-1,1.5789473E-1,4.473684E-1,5.7894737E-1,1.971831E-2,2.056338E-1,2.5474447E-1,-7.892409E-2,8.474576E-3,1.1267605E-2,2.3684211E-1,9.2105263E-1,4.9435027E-2,2.3684211E-1,1.8421052E-1,8.77193E-2,2.7605635E-1,5.6408453E-1,-6.308236E-2,3.169014E-2,5.7894737E-1,3.1578946E-1,-7.629626E-2,2.1976553E-1,3.352801E-2,-1.1196037E-1,-9.483709E-3,1.490687E-1,1.43622E-2,1.7301841E-1,-5.4435857E-2,2.4582787E-1,1.4239368E-2,-1.792369E-2,2.2002962E-1,-7.865017E-2,1.4856254E-1,1.3323746E-2,-1.8994384E-1,-9.243131E-2,-3.5735495E-2,-1.4020582E-1,2.0510133E-1,-5.4713983E-2,-2.2431877E-1,-1.3325638E-1,1.1702963E-1,-1.2015145E-1],"split_indices":[4,2,2,3,3,2,2,2,0,0,0,2,0,3,5,0,0,4,3,3,3,3,3,4,4,0,0,2,4,3,3,2,5,3,5,4,4,0,4,3,3,0,0,0,0,0,0,0,0,0,0,0,0,0,0,0,0,0,0,0,0,0,0,0,0,0,0],"split_type":[0,0,0,0,0,0,0,0,0,0,0,0,0,0,0,0,0,0,0,0,0,0,0,0,0,0,0,0,0,0,0,0,0,0,0,0,0,0,0,0,0,0,0,0,0,0,0,0,0,0,0,0,0,0,0,0,0,0,0,0,0,0,0,0,0,0,0],"sum_hessian":[5.5529116E3,1.08770966E2,5.4441406E3,1.0567522E2,3.0957441E0,5.0673677E3,3.7677283E2,1.04481865E2,1.193353E0,1.543499E0,1.5522451E0,2.4026785E2,4.8271E3,3.0876273E2,6.801009E1,2.1107495E0,1.0237112E2,1.1204244E1,2.290636E2,3.08253E2,4.518847E3,1.2652025E2,1.8224248E2,5.5336075E0,6.2476482E1,1.0048617E1,1.1556265E0,1.6204266E1,2.1285934E2,1.2879146E2,1.7946155E2,5.6919853E1,4.4619272E3,6.231134E1,6.420891E1,4.4028152E1,1.3821432E2,2.0277214E0,3.505886E0,2.3121479E1,3.9355003E1,6.9636273E0,9.240639E0,1.0985156E1,2.0187418E2,6.1971135E0,1.2259434E2,1.6257326E2,1.6888283E1,1.600357E1,4.0916283E1,2.3251616E3,2.1367654E3,2.0015624E0,6.030978E1,1.1440742E1,5.2768166E1,2.4017866E1,2.0010284E1,1.20688736E2,1.7525593E1,1.6393583E0,1.8665277E0,1.396515E1,9.156329E0,2.1411386E0,3.7213867E1],"tree_param":{"num_deleted":"0","num_feature":"6","num_nodes":"67","size_leaf_vector":"1"}},{"base_weights":[4.485811E-3,8.5585016E-1,-1.0234395E-2,8.710504E-1,2.9275355E-1,4.4910282E-2,-1.1730423E-1,3.071041E-1,1.7758213E-1,1.20024204E-1,-2.059647E-2,-6.5112956E-2,1.09401114E-1,-3.4802815E-1,-9.469512E-2,1.2315629E-1,-1.8776838E-2,3.4743193E-1,-1.9538021E-1,5.001988E-1,2.3585116E-3,-2.0954314E-1,-6.405769E-1,5.107458E-1,-1.11719586E-1,-1.7209755E-1,6.1394334E-1,-2.6467022E-1,6.5881115E-1,-4.7131753E-1,7.8165215E-1,-2.4758273E-1,1.3177986E-1,6.1193388E-2,-3.503638E-1,-9.307091E-1,-4.6931612E-1,1.122965E0,-3.7512355E-2,-2.3283803E-1,-4.7540855E-2,2.0670195E-1,-5.4728158E-2,-3.6946076E-3,1.6054946E-1,-3.1166209E-2,-1.8741591E-1,2.2352462E-1,-3.324696E-2,1.3642079E-1,-1.0929487E-1,2.2256039E-1,1.0678941E-1,8.718955E-2,-5.9278425E-2,6.0016852E-2,-1.2241244E-2,-4.50004E-2,1.1632279E-1,-9.026903E-2,4.2368703E-2,-1.2709253E-1,-2.1229959E-1,-1.5084709E-1,-5.5771787E-2,4.5586836E-2,2.5454876E-1,1.21202365E-1,-1.0562903E-1,-1.24937855E-2,-1.17873445E-1,9.472857E-3,-3.3300143E-2],"categories":[],"categories_nodes":[],"categories_segments":[],"categories_sizes":[],"default_left":[0,0,0,0,0,0,0,0,0,0,0,0,0,0,0,0,0,0,0,0,0,0,0,0,0,0,0,0,0,0,0,0,0,0,0,0,0,0,0,0,0,0,0,0,0,0,0,0,0,0,0,0,0,0,0,0,0,0,0,0,0,0,0,0,0,0,0,0,0,0,0,0,0],"id":15,"left_children":[1,3,5,7,9,11,13,15,-1,-1,-1,17,19,21,23,-1,-1,25,27,29,31,33,35,37,39,41,43,45,47,49,51,53,55,57,59,61,63,65,67,69,71,-1,-1,-1,-1,-1,-1,-1,-1,-1,-1,-1,-1,-1,-1,-1,-1,-1,-1,-1,-1,-1,-1,-1,-1,-1,-1,-1,-1,-1,-1,-1,-1],"loss_changes":[6.873296E1,5.428467E-1,3.1838875E1,5.8553314E-1,5.4303896E-1,2.5263042E1,9.529524E0,5.713457E-1,0E0,0E0,0E0,7.079105E1,9.3888E1,6.4786987E0,1.7279625E1,0E0,0E0,4.3884235E1,5.9409653E1,1.3232343E2,5.7056973E1,4.301797E0,2.144827E0,1.5441568E1,1.2628429E1,1.3502339E1,2.4993523E1,6.765485E1,2.8719898E1,9.823883E0,3.0129608E1,2.0205341E1,3.7763885E1,5.979294E0,4.297018E0,3.0881882E-2,1.6720338E0,2.6199284E0,8.267549E0,3.4156303E1,1.2021489E1,0E0,0E0,0E0,0E0,0E0,0E0,0E0,0E0,0E0,0E0,0E0,0E0,0E0,0E0,0E0,0E0,0E0,0E0,0E0,0E0,0E0,0E0,0E0,0E0,0E0,0E0,0E0,0E0,0E0,0E0,0E0,0E0],"parents":[2147483647,0,0,1,1,2,2,3,3,4,4,5,5,6,6,7,7,11,11,12,12,13,13,14,14,17,17,18,18,19,19,20,20,21,21,22,22,23,23,24,24,25,25,26,26,27,27,28,28,29,29,30,30,31,31,32,32,33,33,34,34,35,35,36,36,37,37,38,38,39,39,40,40],"right_children":[2,4,6,8,10,12,14,16,-1,-1,-1,18,20,22,24,-1,-1,26,28,30,32,34,36,38,40,42,44,46,48,50,52,54,56,58,60,62,64,66,68,70,72,-1,-1,-1,-1,-1,-1,-1,-1,-1,-1,-1,-1,-1,-1,-1,-1,-1,-1,-1,-1,-1,-1,-1,-1,-1,-1,-1,-1,-1,-1,-1,-1],"split_conditions":[1.4084507E-3,9.1101694E-1,1E0,1.6949153E-2,2.8947368E-1,3.9473686E-1,5.9322033E-2,8.474576E-3,1.7758213E-1,1.20024204E-1,-2.059647E-2,1.0028248E-1,5.263158E-1,3.0985916E-1,7.768361E-2,1.2315629E-1,-1.8776838E-2,2.4011299E-2,4.6468925E-1,6.214689E-2,5.7894737E-1,3.1578946E-1,2.8248588E-2,4.2105263E-1,4.2105263E-1,5.6497175E-3,2.3684211E-1,4.0677965E-1,6.9491524E-1,3.169014E-2,2.8531075E-1,1E0,3.375706E-1,1.3943662E-1,5.7894737E-1,2.982456E-1,3.1578946E-1,6.214689E-2,2.2112677E-1,3.9473686E-1,4.2231637E-1,2.0670195E-1,-5.4728158E-2,-3.6946076E-3,1.6054946E-1,-3.1166209E-2,-1.8741591E-1,2.2352462E-1,-3.324696E-2,1.3642079E-1,-1.0929487E-1,2.2256039E-1,1.0678941E-1,8.718955E-2,-5.9278425E-2,6.0016852E-2,-1.2241244E-2,-4.50004E-2,1.1632279E-1,-9.026903E-2,4.2368703E-2,-1.2709253E-1,-2.1229959E-1,-1.5084709E-1,-5.5771787E-2,4.5586836E-2,2.5454876E-1,1.21202365E-1,-1.0562903E-1,-1.24937855E-2,-1.17873445E-1,9.472857E-3,-3.3300143E-2],"split_indices":[4,2,1,2,3,3,2,2,0,0,0,2,3,4,2,0,0,2,2,2,3,3,2,3,3,2,3,2,2,4,2,0,2,4,3,5,5,2,4,3,2,0,0,0,0,0,0,0,0,0,0,0,0,0,0,0,0,0,0,0,0,0,0,0,0,0,0,0,0,0,0,0,0],"split_type":[0,0,0,0,0,0,0,0,0,0,0,0,0,0,0,0,0,0,0,0,0,0,0,0,0,0,0,0,0,0,0,0,0,0,0,0,0,0,0,0,0,0,0,0,0,0,0,0,0,0,0,0,0,0,0,0,0,0,0,0,0,0,0,0,0,0,0,0,0,0,0,0,0],"sum_hessian":[5.482784E3,9.221568E1,5.3905684E3,8.925932E1,2.9563594E0,3.5584326E3,1.8321357E3,3.1488955E0,8.611043E1,1.3732724E0,1.583087E0,1.314998E3,2.2434346E3,1.6222723E2,1.6699084E3,1.4765786E0,1.6723168E0,3.151809E2,9.9981714E2,4.8158002E2,1.7618546E3,1.1127078E2,5.095645E1,4.4878906E1,1.6250295E3,1.0698391E2,2.08197E2,9.254379E2,7.43792E1,1.0802533E2,3.735547E2,6.007536E2,1.161101E3,3.82665E1,7.300429E1,1.726813E1,3.3688324E1,2.0707447E1,2.4171461E1,5.61928E2,1.0631016E3,7.5978446E0,9.938606E1,4.8073277E1,1.6012373E2,7.975712E2,1.278667E2,4.7570442E1,2.6808764E1,6.1142974E0,1.0191103E2,1.5835802E2,2.1519667E2,3.9510727E1,5.6124286E2,6.1991455E2,5.411864E2,2.5055407E1,1.3211091E1,6.2055355E1,1.0948935E1,7.099714E0,1.0168415E1,1.2311093E1,2.1377232E1,3.330035E0,1.7377413E1,1.0354768E1,1.3816693E1,3.8102744E2,1.8090053E2,5.9167236E2,4.714292E2],"tree_param":{"num_deleted":"0","num_feature":"6","num_nodes":"73","size_leaf_vector":"1"}},{"base_weights":[3.8152263E-3,8.227062E-1,-8.429013E-3,8.325384E-1,1.1015187E-2,2.0667234E-2,-1.9546431E-1,8.5034174E-1,2.5263885E-1,2.8343743E-1,2.4656416E-3,-1.826935E-1,-9.2722726E-1,7.2208846E-1,1.8932094E-1,1.1385753E-1,-2.5143897E-2,5.2868676E-1,7.313074E-2,-3.0200535E-2,1.5900195E-1,-7.6902617E-4,-2.2699304E-1,-1.3874592E0,-6.186974E-2,9.071874E-1,5.23919E-1,-2.2291702E-1,6.3529515E-1,8.827954E-3,8.2449144E-1,3.5271075E-1,-4.922623E-2,6.6795117E-1,7.60947E-2,-8.7315387E-1,7.17993E-2,-1.7370026E-1,-4.641891E-1,1.6866548E-2,-3.4097812E-1,1.5912013E-1,-5.74336E-1,1.9185324E-1,2.9627217E-2,1.790403E-1,5.1685926E-2,7.56096E-2,-8.42755E-2,2.6274738E-1,1.1886006E-1,3.0043174E-2,-5.24079E-2,-6.648758E-3,2.1458569E-1,-2.5160952E-2,1.1119979E-1,-1.3021386E-1,-6.847031E-3,-9.815488E-2,1.5829878E-1,-5.211789E-2,3.893597E-2,8.801818E-4,-1.9562744E-1,-4.1695196E-2,4.2913657E-2,-4.1818336E-2,1.47262355E-2,-1.01982534E-1,4.6119127E-2,-1.5953603E-1,-2.4774713E-2],"categories":[],"categories_nodes":[],"categories_segments":[],"categories_sizes":[],"default_left":[0,0,0,0,0,0,0,0,0,0,0,0,0,0,0,0,0,0,0,0,0,0,0,0,0,0,0,0,0,0,0,0,0,0,0,0,0,0,0,0,0,0,0,0,0,0,0,0,0,0,0,0,0,0,0,0,0,0,0,0,0,0,0,0,0,0,0,0,0,0,0,0,0],"id":16,"left_children":[1,3,5,7,-1,9,11,13,15,17,19,21,23,25,-1,-1,-1,27,29,31,33,35,37,39,41,43,45,47,49,51,53,55,57,59,61,63,65,67,69,-1,-1,-1,71,-1,-1,-1,-1,-1,-1,-1,-1,-1,-1,-1,-1,-1,-1,-1,-1,-1,-1,-1,-1,-1,-1,-1,-1,-1,-1,-1,-1,-1,-1],"loss_changes":[5.4142834E1,5.545578E-1,2.8959019E1,5.953369E-1,0E0,2.2025469E1,6.525263E0,2.5123215E-1,5.220569E-1,1.5348131E1,2.2033146E1,5.684208E0,4.710231E0,8.701267E-1,0E0,0E0,0E0,1.1163925E1,7.8082542E0,2.5988907E1,3.1339806E1,8.870187E0,7.089363E0,3.7947664E0,2.7541146E0,5.535507E-1,1.7480698E0,2.2856257E0,2.577118E0,5.7847986E0,2.7508554E0,1.6497194E1,3.0627506E1,1.528791E1,2.5637157E1,9.956074E-1,5.221122E0,4.083519E0,3.4043522E0,0E0,0E0,0E0,2.8881848E-1,0E0,0E0,0E0,0E0,0E0,0E0,0E0,0E0,0E0,0E0,0E0,0E0,0E0,0E0,0E0,0E0,0E0,0E0,0E0,0E0,0E0,0E0,0E0,0E0,0E0,0E0,0E0,0E0,0E0,0E0],"parents":[2147483647,0,0,1,1,2,2,3,3,5,5,6,6,7,7,8,8,9,9,10,10,11,11,12,12,13,13,17,17,18,18,19,19,20,20,21,21,22,22,23,23,24,24,25,25,26,26,27,27,28,28,29,29,30,30,31,31,32,32,33,33,34,34,35,35,36,36,37,37,38,38,42,42],"right_children":[2,4,6,8,-1,10,12,14,16,18,20,22,24,26,-1,-1,-1,28,30,32,34,36,38,40,42,44,46,48,50,52,54,56,58,60,62,64,66,68,70,-1,-1,-1,72,-1,-1,-1,-1,-1,-1,-1,-1,-1,-1,-1,-1,-1,-1,-1,-1,-1,-1,-1,-1,-1,-1,-1,-1,-1,-1,-1,-1,-1,-1],"split_conditions":[1.4084507E-3,8.684211E-1,5.316901E-1,9.1101694E-1,1.1015187E-2,1E0,9.736842E-1,4.473684E-1,2.8947368E-1,6.315789E-1,6.052632E-1,3.8215274E-1,2.6129943E-1,1E0,1.8932094E-1,1.1385753E-1,-2.5143897E-2,1.4124294E-2,9.2105263E-1,2.1052632E-1,6.315789E-1,5.9322033E-2,5.875706E-1,1E0,4.1666666E-1,4.2105263E-1,1.0526316E-1,1.971831E-2,1.8361581E-2,4.4491526E-1,5.3672317E-2,1.2711864E-2,2.3684211E-1,7.768361E-2,1.9067797E-1,2.631579E-1,4.2105263E-1,4.6468925E-1,7.631579E-1,1.6866548E-2,-3.4097812E-1,1.5912013E-1,6.5677965E-1,1.9185324E-1,2.9627217E-2,1.790403E-1,5.1685926E-2,7.56096E-2,-8.42755E-2,2.6274738E-1,1.1886006E-1,3.0043174E-2,-5.24079E-2,-6.648758E-3,2.1458569E-1,-2.5160952E-2,1.1119979E-1,-1.3021386E-1,-6.847031E-3,-9.815488E-2,1.5829878E-1,-5.211789E-2,3.893597E-2,8.801818E-4,-1.9562744E-1,-4.1695196E-2,4.2913657E-2,-4.1818336E-2,1.47262355E-2,-1.01982534E-1,4.6119127E-2,-1.5953603E-1,-2.4774713E-2],"split_indices":[4,3,4,2,0,0,3,3,3,3,3,5,2,0,0,0,0,2,3,3,3,2,2,0,2,3,3,4,2,2,2,2,3,2,2,3,3,2,3,0,0,0,2,0,0,0,0,0,0,0,0,0,0,0,0,0,0,0,0,0,0,0,0,0,0,0,0,0,0,0,0,0,0],"split_type":[0,0,0,0,0,0,0,0,0,0,0,0,0,0,0,0,0,0,0,0,0,0,0,0,0,0,0,0,0,0,0,0,0,0,0,0,0,0,0,0,0,0,0,0,0,0,0,0,0,0,0,0,0,0,0,0,0,0,0,0,0,0,0,0,0,0,0,0,0,0,0,0,0],"sum_hessian":[5.398176E3,7.855051E1,5.319625E3,7.7473625E1,1.0768816E0,4.604252E3,7.153734E2,7.471352E1,2.7601092E0,2.9732336E2,4.306928E3,7.04331E2,1.1042413E1,3.5678925E1,3.903459E1,1.2278737E0,1.5322355E0,1.3655997E2,1.6076341E2,3.5639966E3,7.429319E2,1.3812244E2,5.6620856E2,6.814729E0,4.2276835E0,1.659791E1,1.9081013E1,1.6828157E1,1.1973181E2,1.4902162E2,1.1741786E1,1.6787164E2,3.3961248E3,1.0308139E2,6.3985046E2,9.759985E0,1.2836246E2,4.6374704E2,1.0246154E2,1.339301E0,5.4754286E0,1.374816E0,2.8528676E0,1.5285404E1,1.3125058E0,6.966536E0,1.2114477E1,3.9530091E0,1.2875148E1,5.0534687E0,1.1467834E2,9.8205536E1,5.0816082E1,2.8316448E0,8.910142E0,5.016664E1,1.17705E2,8.1505684E1,3.3146191E3,9.645188E0,9.34362E1,1.6635155E2,4.734989E2,1.1452156E0,8.61477E0,4.3164444E1,8.519801E1,4.0583014E2,5.7916893E1,9.638459E1,6.0769506E0,1.3919303E0,1.4609371E0],"tree_param":{"num_deleted":"0","num_feature":"6","num_nodes":"73","size_leaf_vector":"1"}},{"base_weights":[3.5551002E-3,7.880299E-1,-6.6487687E-3,2.0714284E-1,8.083709E-1,1.0733178E-2,-2.4509908E-1,1.098124E-1,-3.3584505E-2,1.900245E-1,6.7832005E-1,-7.363873E-2,6.501319E-2,-1.8253958E-1,-5.309236E-1,4.6582922E-1,8.291174E-1,3.824745E-1,-2.465488E-1,-1.9329281E-1,1.5279678E-1,-2.4394099E-2,-2.9083905E-1,1.4123015E-1,-5.956184E-1,1.7653732E-1,1.567809E-1,8.668451E-1,1.0856506E-2,-2.2535319E-2,7.16877E-1,-6.1161286E-1,-1.545857E-1,9.070943E-1,-2.3415351E-1,4.496739E-1,3.114314E-2,-2.384754E-1,1.7135943E-1,-3.8319883E-1,7.440682E-2,-8.8901915E-2,3.495717E-1,-8.6080354E-1,-4.2011675E-1,-3.0562583E-2,1.53964E-1,2.6115512E-2,1.8206368E-1,1.9077277E-1,-1.3098709E-2,-4.624784E-2,2.125778E-1,6.1499458E-2,-1.6136645E-1,1.4494099E-2,-5.3895533E-2,2.58764E-1,9.486087E-2,-6.539314E-2,5.8948804E-2,5.909675E-2,1.6745614E-1,2.457632E-2,-1.798363E-2,5.0504818E-3,-1.0588481E-1,1.221713E-1,1.0696096E-2,-6.382528E-2,-1.8297547E-1,6.817658E-2,-5.7989426E-2,1.4324895E-1,-4.5433097E-2,-2.447466E-1,-1.3848025E-1,1.0798804E-1,-9.925699E-2],"categories":[],"categories_nodes":[],"categories_segments":[],"categories_sizes":[],"default_left":[0,0,0,0,0,0,0,0,0,0,0,0,0,0,0,0,0,0,0,0,0,0,0,0,0,0,0,0,0,0,0,0,0,0,0,0,0,0,0,0,0,0,0,0,0,0,0,0,0,0,0,0,0,0,0,0,0,0,0,0,0,0,0,0,0,0,0,0,0,0,0,0,0,0,0,0,0,0,0],"id":17,"left_children":[1,3,5,7,9,11,13,-1,-1,-1,15,17,19,21,23,25,27,29,31,33,35,37,39,41,43,-1,45,47,-1,49,51,53,55,57,59,61,63,65,67,69,71,-1,73,75,77,-1,-1,-1,-1,-1,-1,-1,-1,-1,-1,-1,-1,-1,-1,-1,-1,-1,-1,-1,-1,-1,-1,-1,-1,-1,-1,-1,-1,-1,-1,-1,-1,-1,-1],"loss_changes":[4.2805584E1,6.438713E-1,2.1883707E1,5.6254095E-1,5.72155E-1,2.2543928E1,6.3175316E0,0E0,0E0,0E0,8.286648E-1,1.5208333E2,6.794931E1,5.059704E0,2.862505E0,2.1831317E0,5.6374073E-1,7.181692E1,4.6840446E1,3.4392776E1,8.0747574E1,5.125763E0,5.948783E0,9.38615E-1,2.3598156E0,0E0,2.3124444E0,5.1672745E-1,0E0,1.0159723E1,9.551907E1,5.0662407E1,2.9186033E1,3.9761295E0,3.6115925E1,3.8594376E1,1.763905E1,4.4924498E0,3.2811203E0,4.4854374E0,3.6192567E0,0E0,1.2822452E0,5.177078E-1,2.9839253E0,0E0,0E0,0E0,0E0,0E0,0E0,0E0,0E0,0E0,0E0,0E0,0E0,0E0,0E0,0E0,0E0,0E0,0E0,0E0,0E0,0E0,0E0,0E0,0E0,0E0,0E0,0E0,0E0,0E0,0E0,0E0,0E0,0E0,0E0],"parents":[2147483647,0,0,1,1,2,2,3,3,4,4,5,5,6,6,10,10,11,11,12,12,13,13,14,14,15,15,16,16,17,17,18,18,19,19,20,20,21,21,22,22,23,23,24,24,26,26,27,27,29,29,30,30,31,31,32,32,33,33,34,34,35,35,36,36,37,37,38,38,39,39,40,40,42,42,43,43,44,44],"right_children":[2,4,6,8,10,12,14,-1,-1,-1,16,18,20,22,24,26,28,30,32,34,36,38,40,42,44,-1,46,48,-1,50,52,54,56,58,60,62,64,66,68,70,72,-1,74,76,78,-1,-1,-1,-1,-1,-1,-1,-1,-1,-1,-1,-1,-1,-1,-1,-1,-1,-1,-1,-1,-1,-1,-1,-1,-1,-1,-1,-1,-1,-1,-1,-1,-1,-1],"split_conditions":[1.4084507E-3,1.6949153E-2,8.079096E-1,8.474576E-3,1E0,1.8079096E-1,9.6468925E-1,1.098124E-1,-3.3584505E-2,1.900245E-1,4.473684E-1,3.6842105E-1,3.6842105E-1,5.5263156E-1,4.385965E-2,1.5789473E-1,7.259887E-1,5.9322033E-2,3.9473686E-1,1.5789473E-1,2.937853E-1,4.473684E-1,6.8421054E-1,2.8947368E-1,2.056338E-1,1.7653732E-1,1E0,6.638418E-2,1.0856506E-2,5.6497175E-3,2.3684211E-1,8.757062E-2,5.263158E-1,2.9519773E-1,4.60452E-1,2.8107345E-1,2.7887323E-1,2.2535211E-1,4.7368422E-1,6.5789473E-1,2.7192983E-1,-8.8901915E-2,3.169014E-2,4.473684E-1,3.1578946E-1,-3.0562583E-2,1.53964E-1,2.6115512E-2,1.8206368E-1,1.9077277E-1,-1.3098709E-2,-4.624784E-2,2.125778E-1,6.1499458E-2,-1.6136645E-1,1.4494099E-2,-5.3895533E-2,2.58764E-1,9.486087E-2,-6.539314E-2,5.8948804E-2,5.909675E-2,1.6745614E-1,2.457632E-2,-1.798363E-2,5.0504818E-3,-1.0588481E-1,1.221713E-1,1.0696096E-2,-6.382528E-2,-1.8297547E-1,6.817658E-2,-5.7989426E-2,1.4324895E-1,-4.5433097E-2,-2.447466E-1,-1.3848025E-1,1.0798804E-1,-9.925699E-2],"split_indices":[4,2,2,2,0,